{"learner":{"attributes":{"best_iteration":"99","best_ntree_limit":"100","scikit_learn":"{\"use_label_encoder\": null, \"n_estimators\": 100, \"objective\": \"multi:softprob\", \"max_depth\": null, \"max_leaves\": null, \"max_bin\": null, \"grow_policy\": null, \"learning_rate\": null, \"verbosity\": null, \"booster\": null, \"tree_method\": null, \"gamma\": null, \"min_child_weight\": null, \"max_delta_step\": null, \"subsample\": null, \"sampling_method\": null, \"colsample_bytree\": null, \"colsample_bylevel\": null, \"colsample_bynode\": null, \"reg_alpha\": null, \"reg_lambda\": null, \"scale_pos_weight\": null, \"base_score\": null, \"missing\": NaN, \"num_parallel_tree\": null, \"random_state\": null, \"n_jobs\": null, \"monotone_constraints\": null, \"interaction_constraints\": null, \"importance_type\": null, \"gpu_id\": null, \"validate_parameters\": null, \"predictor\": null, \"enable_categorical\": false, \"feature_types\": null, \"max_cat_to_onehot\": null, \"max_cat_threshold\": null, \"eval_metric\": null, \"early_stopping_rounds\": null, \"callbacks\": null, \"kwargs\": {\"num_class\": 4}, \"classes_\": [0, 1, 2, 3], \"n_classes_\": 4, \"_estimator_type\": \"classifier\"}"},"feature_names":[],"feature_types":[],"gradient_booster":{"model":{"gbtree_model_param":{"num_parallel_tree":"1","num_trees":"400","size_leaf_vector":"0"},"tree_info":[0,1,2,3,0,1,2,3,0,1,2,3,0,1,2,3,0,1,2,3,0,1,2,3,0,1,2,3,0,1,2,3,0,1,2,3,0,1,2,3,0,1,2,3,0,1,2,3,0,1,2,3,0,1,2,3,0,1,2,3,0,1,2,3,0,1,2,3,0,1,2,3,0,1,2,3,0,1,2,3,0,1,2,3,0,1,2,3,0,1,2,3,0,1,2,3,0,1,2,3,0,1,2,3,0,1,2,3,0,1,2,3,0,1,2,3,0,1,2,3,0,1,2,3,0,1,2,3,0,1,2,3,0,1,2,3,0,1,2,3,0,1,2,3,0,1,2,3,0,1,2,3,0,1,2,3,0,1,2,3,0,1,2,3,0,1,2,3,0,1,2,3,0,1,2,3,0,1,2,3,0,1,2,3,0,1,2,3,0,1,2,3,0,1,2,3,0,1,2,3,0,1,2,3,0,1,2,3,0,1,2,3,0,1,2,3,0,1,2,3,0,1,2,3,0,1,2,3,0,1,2,3,0,1,2,3,0,1,2,3,0,1,2,3,0,1,2,3,0,1,2,3,0,1,2,3,0,1,2,3,0,1,2,3,0,1,2,3,0,1,2,3,0,1,2,3,0,1,2,3,0,1,2,3,0,1,2,3,0,1,2,3,0,1,2,3,0,1,2,3,0,1,2,3,0,1,2,3,0,1,2,3,0,1,2,3,0,1,2,3,0,1,2,3,0,1,2,3,0,1,2,3,0,1,2,3,0,1,2,3,0,1,2,3,0,1,2,3,0,1,2,3,0,1,2,3,0,1,2,3,0,1,2,3,0,1,2,3,0,1,2,3,0,1,2,3,0,1,2,3,0,1,2,3,0,1,2,3,0,1,2,3,0,1,2,3,0,1,2,3],"trees":[{"base_weights":[9.464001E-1,1.459271E0,-6.663345E-1,1.7338942E0,-3.2315445E-1,1.8823993E0,-1.4847161E-1,-6.150509E-1,1.978975E0,1.937751E0,9.461664E-2,-4.1007698E-1,1.9550562E0,-4.9356464E-1,-6.6540104E-1,1.9614081E0,-6.519337E-1,-3.8367346E-1,1.9370079E0,1.2631578E0,-6.6452134E-1,-3.6659878E-2,-6.625767E-1,1.9783075E0,-6.459144E-1,-4.4843048E-2,-6.5682656E-1,1.9430605E0,-6.168224E-1,-6.525199E-1,1.8688525E0],"categories":[],"categories_nodes":[],"categories_segments":[],"categories_sizes":[],"default_left":[1,1,0,1,1,1,1,1,0,1,1,1,0,1,0,1,0,1,0,1,0,1,0,0,0,0,0,0,0,0,0],"id":0,"left_children":[1,3,-1,5,7,9,11,13,-1,15,17,19,-1,21,-1,23,-1,25,-1,27,-1,29,-1,-1,-1,-1,-1,-1,-1,-1,-1],"loss_changes":[6.879548E3,3.0892764E3,0E0,1.5287402E3,5.678672E2,5.0133008E2,2.213321E2,4.2538757E0,0E0,3.0243945E2,1.3578668E2,1.5293684E2,0E0,1.7225262E1,0E0,2.1592578E2,0E0,1.1308237E1,0E0,6.1913193E1,0E0,7.3244804E1,0E0,0E0,0E0,0E0,0E0,0E0,0E0,0E0,0E0],"parents":[2147483647,0,0,1,1,3,3,4,4,5,5,6,6,7,7,9,9,10,10,11,11,13,13,15,15,17,17,19,19,21,21],"right_children":[2,4,-1,6,8,10,12,14,-1,16,18,20,-1,22,-1,24,-1,26,-1,28,-1,30,-1,-1,-1,-1,-1,-1,-1,-1,-1],"split_conditions":[6.047047E-1,6.2973374E-1,-1.9990036E-1,5.996833E-1,1.0848479E0,6.2602156E-1,2.530366E0,3.9970613E-1,5.9369254E-1,1.5042711E0,2.380928E0,4.847291E-1,5.8651686E-1,5.0299823E-1,-1.9962032E-1,4.2705884E0,-1.9558012E-1,4.2667037E-1,5.811024E-1,1.6733025E0,-1.993564E-1,4.2667037E-1,-1.9877301E-1,5.9349227E-1,-1.9377433E-1,-1.3452915E-2,-1.9704798E-1,5.8291817E-1,-1.8504673E-1,-1.9575597E-1,5.606558E-1],"split_indices":[44,83,0,30,112,42,35,87,0,49,5,109,0,70,0,18,0,1,0,16,0,1,0,0,0,0,0,0,0,0,0],"split_type":[0,0,0,0,0,0,0,0,0,0,0,0,0,0,0,0,0,0,0,0,0,0,0,0,0,0,0,0,0,0,0],"sum_hessian":[8.31525E3,6.309E3,2.00625E3,5.46675E3,8.4225E2,5.067E3,3.9975E2,7.48125E2,9.4125E1,4.91475E3,1.5225E2,3.5625E2,4.35E1,2.22375E2,5.2575E2,4.8705E3,4.425E1,1.215E2,3.075E1,4.65E1,3.0975E2,6.0375E1,1.62E2,4.839375E3,3.1125E1,5.475E1,6.675E1,3.4125E1,1.2375E1,4.6125E1,1.425E1],"tree_param":{"num_deleted":"0","num_feature":"115","num_nodes":"31","size_leaf_vector":"0"}},{"base_weights":[2.2696528E-1,-2.6196513E-1,1.763856E0,-4.6445063E-1,1.0512897E0,1.8329704E0,-6.5486723E-1,-5.9352803E-1,1.169058E0,1.8384798E0,2.6580036E-1,1.8498936E0,-6.1946905E-1,-6.3494194E-1,2.9966703E-1,1.5704699E0,4.819277E-3,1.9487525E0,1.004878E0,7.853403E-2,1.9526627E0,1.9040738E0,1.4947368E0,-6.506878E-1,9.946524E-1,-3.4361234E-1,9.445676E-1,1.7288748E0,-4.5810056E-1,4.8962656E-1,-6.516854E-1,1.9781793E0,-5.365854E-1,5.633803E-1,1.880597E0,3.2218844E-1,-6.596584E-1,1.9270536E0,1.271255E0,1.2290503E-1,1.6164669E0,-6.531762E-1,1.6363636E0,1.9330544E0,-6.293706E-1,-5.273159E-1,1.7837838E0,1.7355372E0,-6.4918035E-1,-5E-1,1.7551394E0,-6.347305E-1,1.2E0,9.257143E-1,-6.2857145E-1,-2.793296E-1,1.858407E0,7.4932617E-1,-4.4740024E-1,1.9360307E0,1.6388261E0,-2.78481E-1,1.9534883E0,1.1688311E0,-6.181818E-1,1.7553794E0,1.24223605E-2],"categories":[],"categories_nodes":[],"categories_segments":[],"categories_sizes":[],"default_left":[1,1,1,1,1,1,0,1,1,1,1,1,0,1,1,1,1,1,1,1,0,1,1,1,1,1,1,1,1,1,0,0,0,1,0,1,0,1,1,1,1,0,0,0,0,0,0,0,0,0,0,0,0,0,0,0,0,0,0,0,0,0,0,0,0,0,0],"id":1,"left_children":[1,3,5,7,9,11,-1,13,15,17,19,21,-1,23,25,27,29,31,33,35,-1,37,39,41,43,45,47,49,51,53,-1,-1,-1,55,-1,57,-1,59,61,63,65,-1,-1,-1,-1,-1,-1,-1,-1,-1,-1,-1,-1,-1,-1,-1,-1,-1,-1,-1,-1,-1,-1,-1,-1,-1,-1],"loss_changes":[6.2495635E3,1.6784124E3,3.367495E2,1.1535635E3,5.209177E2,8.21499E1,0E0,1.8765918E2,1.8727856E2,3.6741577E1,1.3354816E2,3.445752E1,0E0,1.2493457E2,9.3769806E1,9.655011E1,3.3340446E1,2.8176392E1,1.8755196E1,6.8920525E1,0E0,2.195752E1,4.3428284E1,2.8374512E1,7.2462975E1,4.5297585E1,1.4326003E2,1.7071228E1,7.3146486E0,2.9961733E1,0E0,0E0,0E0,3.926139E1,0E0,9.4965614E1,0E0,1.0126953E0,6.583114E1,1.8065908E1,5.3427612E1,0E0,0E0,0E0,0E0,0E0,0E0,0E0,0E0,0E0,0E0,0E0,0E0,0E0,0E0,0E0,0E0,0E0,0E0,0E0,0E0,0E0,0E0,0E0,0E0,0E0,0E0],"parents":[2147483647,0,0,1,1,2,2,3,3,4,4,5,5,7,7,8,8,9,9,10,10,11,11,13,13,14,14,15,15,16,16,17,17,18,18,19,19,21,21,22,22,23,23,24,24,25,25,26,26,27,27,28,28,29,29,33,33,35,35,37,37,38,38,39,39,40,40],"right_children":[2,4,6,8,10,12,-1,14,16,18,20,22,-1,24,26,28,30,32,34,36,-1,38,40,42,44,46,48,50,52,54,-1,-1,-1,56,-1,58,-1,60,62,64,66,-1,-1,-1,-1,-1,-1,-1,-1,-1,-1,-1,-1,-1,-1,-1,-1,-1,-1,-1,-1,-1,-1,-1,-1,-1,-1],"split_conditions":[6.047047E-1,6.2973374E-1,5.390351E0,5.996833E-1,4.2667037E-1,3.7154057E0,-1.9646017E-1,9.762701E-1,6.1135554E-1,9.762701E-1,3.6749296E0,6.629245E-1,-1.8584073E-1,1.5042711E0,3.9970613E-1,3.1921427E0,2.530366E0,3.3663967E0,1.6733025E0,1.0848479E0,5.8579886E-1,1.1765964E0,1.0538784E-1,1.0657148E0,6.629245E-1,4.2705884E0,1.1588979E0,3.050579E-1,1.6733025E0,3.5975416E0,-1.9550563E-1,5.934538E-1,-1.6097562E-1,2.1820655E0,5.641791E-1,1.1588979E0,-1.9789752E-1,3.1106684E0,2.9469528E0,1.6483316E0,3.1106684E0,-1.9595286E-1,4.909091E-1,5.7991636E-1,-1.888112E-1,-1.5819478E-1,5.3513515E-1,5.206612E-1,-1.9475411E-1,-1.5E-1,5.265418E-1,-1.9041917E-1,3.6E-1,2.777143E-1,-1.8857144E-1,-8.3798885E-2,5.575221E-1,2.2479786E-1,-1.3422008E-1,5.8080924E-1,4.9164787E-1,-8.354431E-2,5.860465E-1,3.5064936E-1,-1.8545455E-1,5.2661383E-1,3.7267082E-3],"split_indices":[44,83,74,30,1,102,0,43,40,43,57,22,0,49,87,85,35,93,16,112,0,80,82,76,22,18,6,88,16,14,0,0,0,17,0,6,0,75,11,33,75,0,0,0,0,0,0,0,0,0,0,0,0,0,0,0,0,0,0,0,0,0,0,0,0,0,0],"split_type":[0,0,0,0,0,0,0,0,0,0,0,0,0,0,0,0,0,0,0,0,0,0,0,0,0,0,0,0,0,0,0,0,0,0,0,0,0,0,0,0,0,0,0,0,0,0,0,0,0,0,0,0,0,0,0,0,0,0,0,0,0,0,0,0,0,0,0],"sum_hessian":[8.31525E3,6.309E3,2.00625E3,5.46675E3,8.4225E2,1.95075E3,5.55E1,5.067E3,3.9975E2,4.2E2,4.2225E2,1.937625E3,1.3125E1,4.84275E3,2.2425E2,2.97E2,1.0275E2,3.6975E2,5.025E1,3.81E2,4.125E1,1.677375E3,2.6025E2,4.797E3,4.575E1,1.125E2,1.1175E2,2.75625E2,2.1375E1,5.925E1,4.35E1,3.65625E2,4.125E0,3.45E1,1.575E1,2.86875E2,9.4125E1,1.616625E3,6.075E1,2.1375E1,2.38875E2,4.7925E3,4.5E0,2.8875E1,1.6875E1,1.0425E2,8.25E0,7.4625E1,3.7125E1,3E0,2.72625E2,1.9875E1,1.5E0,4.275E1,1.65E1,2.1375E1,1.3125E1,1.845E2,1.02375E2,1.56225E3,5.4375E1,1.875E1,4.2E1,8.625E0,1.275E1,2.1975E2,1.9125E1],"tree_param":{"num_deleted":"0","num_feature":"115","num_nodes":"67","size_leaf_vector":"0"}},{"base_weights":[-5.690666E-1,-6.492341E-1,-2.893353E-1,-6.6248304E-1,-5.105634E-1,-6.0369897E-1,1.4379504E-1,-6.6547495E-1,-6.0503507E-1,-5.915212E-1,9.594096E-2,-5.016763E-1,-6.656649E-1,-1.688103E-1,1.3610023E0,-6.642567E-1,1.8348623E-2,-4.4279346E-1,-6.6467065E-1,1.0226245E0,-5.2887535E-1,-6.347555E-1,-3.1163132E-1,-4.7336906E-1,3.655439E-1,1.7454195E0,-2.9032257E-1,1.7419355E0,-6.3414633E-1,-6.595461E-1,-1.6859505E-1,-6.0240966E-1,1.8904109E0,-6.496815E-1,1.3043479E0,-6.638522E-1,1.0857143E0,-4.995587E-1,5.785124E-1,-6.090425E-1,1.9075145E0,8.4329563E-1,-6.574871E-1,1.8285714E0,2.769231E-1,-6.418605E-1,1.6097561E0,2.4096386E-1,-6.4768684E-1,-4.595186E-1,-6.431718E-1,1.3972603E0,-6.1538464E-1,-6.2449527E-1,5.4545456E-1,9.7453904E-1,-6.168224E-1,1.9339622E0,1.0857143E0,-5.4545456E-1,1.4482758E0],"categories":[],"categories_nodes":[],"categories_segments":[],"categories_sizes":[],"default_left":[1,1,1,1,1,1,1,0,1,1,1,1,0,1,1,0,1,1,0,1,1,1,1,1,1,1,1,0,0,0,1,0,0,0,0,0,0,1,1,1,0,1,0,1,1,0,0,0,0,0,0,0,0,0,0,0,0,0,0,0,0],"id":2,"left_children":[1,3,5,7,9,11,13,-1,15,17,19,21,-1,23,25,-1,27,29,-1,31,33,35,37,39,41,43,45,-1,-1,-1,47,-1,-1,-1,-1,-1,-1,49,51,53,-1,55,-1,57,59,-1,-1,-1,-1,-1,-1,-1,-1,-1,-1,-1,-1,-1,-1,-1,-1],"loss_changes":[1.8630688E2,1.1535889E1,2.5256229E2,6.1083984E-1,2.7946259E1,6.459778E0,2.9726184E2,0E0,1.1193649E1,5.158966E0,3.9768566E1,1.0174675E1,0E0,1.0139871E2,1.018363E2,0E0,3.1750856E1,9.888443E0,0E0,4.0095097E1,9.955144E0,1.2747696E1,2.8873375E1,1.292807E2,1.1119633E2,1.532193E1,2.1739677E1,0E0,0E0,0E0,1.4994927E1,0E0,0E0,0E0,0E0,0E0,0E0,5.18837E-1,3.0429249E1,7.048523E0,0E0,3.0256012E1,0E0,7.490814E0,8.616735E0,0E0,0E0,0E0,0E0,0E0,0E0,0E0,0E0,0E0,0E0,0E0,0E0,0E0,0E0,0E0,0E0],"parents":[2147483647,0,0,1,1,2,2,3,3,4,4,5,5,6,6,8,8,9,9,10,10,11,11,13,13,14,14,16,16,17,17,19,19,20,20,21,21,22,22,23,23,24,24,25,25,26,26,30,30,37,37,38,38,39,39,41,41,43,43,44,44],"right_children":[2,4,6,8,10,12,14,-1,16,18,20,22,-1,24,26,-1,28,30,-1,32,34,36,38,40,42,44,46,-1,-1,-1,48,-1,-1,-1,-1,-1,-1,50,52,54,-1,56,-1,58,60,-1,-1,-1,-1,-1,-1,-1,-1,-1,-1,-1,-1,-1,-1,-1,-1],"split_conditions":[6.658902E-1,9.762701E-1,6.629245E-1,1.5042711E0,1.0179198E0,6.047047E-1,1.5042711E0,-1.996425E-1,6.629245E-1,9.972777E-1,6.2602156E-1,5.996833E-1,-1.9969948E-1,6.2602156E-1,9.972777E-1,-1.9927701E-1,3.9970613E-1,6.2973374E-1,-1.994012E-1,1.0657148E0,1.6483316E0,6.2602156E-1,9.762701E-1,1.6483316E0,9.762701E-1,6.047047E-1,1.0179198E0,5.225807E-1,-1.9024391E-1,-1.9786383E-1,1.0657148E0,-1.807229E-1,5.671233E-1,-1.9490446E-1,3.9130437E-1,-1.9915567E-1,3.2571432E-1,6.1135554E-1,9.972777E-1,3.1921427E0,5.7225436E-1,1.1588979E0,-1.9724613E-1,4.847291E-1,1.1765964E0,-1.9255815E-1,4.8292685E-1,7.228916E-2,-1.9430606E-1,-1.3785559E-1,-1.9295155E-1,4.191781E-1,-1.846154E-1,-1.8734859E-1,1.6363637E-1,2.9236174E-1,-1.8504673E-1,5.801887E-1,3.2571432E-1,-1.6363637E-1,4.3448275E-1],"split_indices":[67,43,22,49,64,44,49,0,22,21,42,30,0,42,21,0,87,83,0,76,33,42,43,33,43,44,64,0,0,0,76,0,0,0,0,0,0,40,21,85,0,6,0,109,80,0,0,0,0,0,0,0,0,0,0,0,0,0,0,0,0],"split_type":[0,0,0,0,0,0,0,0,0,0,0,0,0,0,0,0,0,0,0,0,0,0,0,0,0,0,0,0,0,0,0,0,0,0,0,0,0,0,0,0,0,0,0,0,0,0,0,0,0,0,0,0,0,0,0,0,0,0,0,0,0],"sum_hessian":[8.31525E3,6.462E3,1.85325E3,5.895E3,5.67E2,1.073625E3,7.79625E2,5.593125E3,3.01875E2,5.0025E2,6.675E1,4.09125E2,6.645E2,6.21E2,1.58625E2,2.75625E2,2.625E1,1.6725E2,3.33E2,2.6625E1,4.0125E1,2.3925E2,1.69875E2,3.95625E2,2.25375E2,1.28625E2,3E1,6.75E0,1.95E1,9.2625E1,7.4625E1,9.375E0,1.725E1,3.825E1,1.875E0,2.35875E2,3.375E0,1.40625E2,2.925E1,3.75E2,2.0625E1,1.5375E2,7.1625E1,1.215E2,7.125E0,2.5875E1,4.125E0,4.05E1,3.4125E1,1.1325E2,2.7375E1,1.725E1,1.2E1,3.705E2,4.5E0,1.41375E2,1.2375E1,1.05E2,1.65E1,4.5E0,2.625E0],"tree_param":{"num_deleted":"0","num_feature":"115","num_nodes":"61","size_leaf_vector":"0"}},{"base_weights":[-6.0429883E-1,-6.33936E-1,5.9850377E-1,-6.387E-1,1.6966581E-1,-2.5033647E-1,1.3187572E0,-6.470737E-1,-5.397325E-1,-6.440678E-1,1.3540373E0,-6.581876E-1,1.8688525E0,1.7329625E0,-6.329114E-1,-6.6126096E-1,-6.067647E-1,-5.9901214E-1,-1.1912226E-1,-5.365854E-1,1.875E0,1.9754977E0,-5.945946E-1,-6.6233975E-1,-3.2258064E-1,-6.148901E-1,-2.3255815E-1,-6.12764E-1,5.084746E-1,7.768595E-1,-6.5346533E-1,-6.6430897E-1,-5.477707E-1,1.1764706E-1,-6.105263E-1,-5.846154E-1,-6.6571987E-1,2.1176471E-1,-6.3736266E-1,-6.3527054E-1,-3.8663486E-1,1.5E0,-5.1428574E-1,-6.1946905E-1,1.8832117E0],"categories":[],"categories_nodes":[],"categories_segments":[],"categories_sizes":[],"default_left":[1,1,1,1,1,1,1,1,1,0,1,0,0,1,0,1,1,1,1,0,0,0,0,1,1,1,1,1,1,1,0,0,0,0,0,0,0,0,0,0,0,0,0,0,0],"id":3,"left_children":[1,3,5,7,9,11,13,15,17,-1,19,-1,-1,21,-1,23,25,27,29,-1,-1,-1,-1,31,33,35,37,39,41,43,-1,-1,-1,-1,-1,-1,-1,-1,-1,-1,-1,-1,-1,-1,-1],"loss_changes":[2.9683472E2,3.1182129E1,1.2291185E2,6.3376465E0,4.773506E1,8.150318E1,8.890834E1,3.8500977E0,1.5773956E1,0E0,2.0828094E1,0E0,0E0,5.191037E1,0E0,1.791748E0,5.7789917E0,8.790909E0,3.8688896E1,0E0,0E0,0E0,0E0,8.6987305E-1,2.527834E0,2.543274E0,7.8691177E0,2.5554657E0,8.250363E0,4.789773E1,0E0,0E0,0E0,0E0,0E0,0E0,0E0,0E0,0E0,0E0,0E0,0E0,0E0,0E0,0E0],"parents":[2147483647,0,0,1,1,2,2,3,3,4,4,5,5,6,6,7,7,8,8,10,10,13,13,15,15,16,16,17,17,18,18,23,23,24,24,25,25,26,26,27,27,28,28,29,29],"right_children":[2,4,6,8,10,12,14,16,18,-1,20,-1,-1,22,-1,24,26,28,30,-1,-1,-1,-1,32,34,36,38,40,42,44,-1,-1,-1,-1,-1,-1,-1,-1,-1,-1,-1,-1,-1,-1,-1],"split_conditions":[3.1106684E0,6.549889E0,6.2602156E-1,1.5042711E0,6.2973374E-1,2.380928E0,1.6733025E0,5.0299823E-1,1.1765964E0,-1.9322036E-1,1.0657148E0,-1.974563E-1,5.606558E-1,1.2555322E1,-1.8987343E-1,3.6749296E0,4.2705884E0,4.3091307E0,6.629245E-1,-1.6097562E-1,5.625E-1,5.9264934E-1,-1.7837839E-1,3.3663967E0,2.0116634E0,9.0977633E-1,1.0538784E-1,1.6733025E0,9.762701E-1,6.658902E-1,-1.960396E-1,-1.992927E-1,-1.6433121E-1,3.529412E-2,-1.831579E-1,-1.7538463E-1,-1.9971597E-1,6.352942E-2,-1.9120881E-1,-1.9058117E-1,-1.1599046E-1,4.5000002E-1,-1.5428573E-1,-1.8584073E-1,5.649635E-1],"split_indices":[75,37,42,49,83,5,16,70,80,0,76,0,0,41,0,57,18,61,22,0,0,0,0,93,56,72,82,16,43,67,0,0,0,0,0,0,0,0,0,0,0,0,0,0,0],"split_type":[0,0,0,0,0,0,0,0,0,0,0,0,0,0,0,0,0,0,0,0,0,0,0,0,0,0,0,0,0,0,0,0,0,0,0,0,0,0,0,0,0,0,0,0,0],"sum_hessian":[8.31525E3,8.11575E3,1.995E2,8.068125E3,4.7625E1,9.1875E1,1.07625E2,7.433625E3,6.345E2,2.85E1,1.9125E1,7.7625E1,1.425E1,8.8875E1,1.875E1,5.487E3,1.946625E3,5.5575E2,7.875E1,4.125E0,1.5E1,8.0625E1,8.25E0,5.468625E3,1.8375E1,1.904625E3,4.2E1,5.49375E2,6.375E0,2.925E1,4.95E1,5.3715E3,9.7125E1,7.5E0,1.0875E1,1.2015E3,7.03125E2,2.025E1,2.175E1,4.98E2,5.1375E1,3E0,3.375E0,1.3125E1,1.6125E1],"tree_param":{"num_deleted":"0","num_feature":"115","num_nodes":"45","size_leaf_vector":"0"}},{"base_weights":[6.4624846E-1,9.217861E-1,-6.1904025E-1,1.0537837E0,-2.8258708E-1,1.1214496E0,-1.3103119E-1,-5.6580234E-1,1.171023E0,1.138456E0,-6.204733E-1,-3.6645913E-1,1.1654387E0,-4.3939838E-1,-6.2002623E-1,1.1574519E0,1.9302352E-1,8.137018E-1,-6.1965877E-1,-1.260486E-2,-6.1719435E-1,1.1646421E0,-5.93978E-1,-2.5714934E-1,1.1589861E0,1.1661394E0,-5.8209395E-1,-6.08653E-1,1.254707E0],"categories":[],"categories_nodes":[],"categories_segments":[],"categories_sizes":[],"default_left":[1,1,0,1,1,1,1,1,0,1,0,1,0,1,0,1,1,1,0,1,0,0,0,0,0,0,0,0,0],"id":4,"left_children":[1,3,-1,5,7,9,11,13,-1,15,-1,17,-1,19,-1,21,23,25,-1,27,-1,-1,-1,-1,-1,-1,-1,-1,-1],"loss_changes":[3.2454868E3,1.2154165E3,0E0,5.5242773E2,3.117974E2,1.9375488E2,1.14295235E2,4.067581E0,0E0,1.1568652E2,0E0,9.507652E1,0E0,1.4676655E1,0E0,8.036621E1,5.6098583E1,2.8393913E1,0E0,4.452244E1,0E0,0E0,0E0,0E0,0E0,0E0,0E0,0E0,0E0],"parents":[2147483647,0,0,1,1,3,3,4,4,5,5,6,6,7,7,9,9,11,11,13,13,15,15,16,16,17,17,19,19],"right_children":[2,4,-1,6,8,10,12,14,-1,16,-1,18,-1,20,-1,22,24,26,-1,28,-1,-1,-1,-1,-1,-1,-1,-1,-1],"split_conditions":[6.047047E-1,6.2973374E-1,-1.8571208E-1,5.996833E-1,1.0848479E0,1.5042711E0,2.530366E0,3.9970613E-1,3.5130692E-1,6.2602156E-1,-1.86142E-1,4.847291E-1,3.496316E-1,5.0299823E-1,-1.8600787E-1,4.2705884E0,2.380928E0,1.6733025E0,-1.8589763E-1,4.2667037E-1,-1.8515831E-1,3.4939265E-1,-1.781934E-1,-7.71448E-2,3.4769583E-1,3.4984183E-1,-1.746282E-1,-1.8259591E-1,3.7641212E-1],"split_indices":[44,83,0,30,112,49,35,87,0,42,0,109,0,70,0,18,5,16,0,1,0,0,0,0,0,0,0,0,0],"split_type":[0,0,0,0,0,0,0,0,0,0,0,0,0,0,0,0,0,0,0,0,0,0,0,0,0,0,0,0,0],"sum_hessian":[9.306499E3,7.6424917E3,1.6640079E3,6.8877314E3,7.547603E2,6.5156685E3,3.7206268E2,6.321966E2,1.2256375E2,6.453014E3,6.265439E1,3.1548975E2,5.657292E1,1.9251622E2,4.3968036E2,6.325693E3,1.2732133E2,5.533945E1,2.601503E2,5.6929554E1,1.3558667E2,6.300163E3,2.552964E1,8.73479E1,3.997343E1,4.4314583E1,1.1024871E1,3.9072514E1,1.7857042E1],"tree_param":{"num_deleted":"0","num_feature":"115","num_nodes":"29","size_leaf_vector":"0"}},{"base_weights":[1.7790683E-1,-2.1953839E-1,1.0661211E0,-4.0950042E-1,7.088333E-1,1.0971035E0,-6.060233E-1,-5.3933084E-1,7.632311E-1,1.0976014E0,2.1863092E-1,1.1046946E0,-5.6969714E-1,-5.838433E-1,2.6553997E-1,8.7783676E-1,-6.0278076E-1,1.11141E0,-5.416122E-1,4.0406674E-1,-6.108944E-1,1.1140953E0,5.9038764E-1,-6.0047454E-1,6.883445E-1,-2.8721756E-1,7.142367E-1,9.298756E-1,-5.7987213E-1,1.1309482E0,-9.469578E-2,6.7284805E-1,-3.8013014E-1,1.0154134E0,1.1472375E0,1.0849258E0,-6.025645E-1,-6.0297227E-1,1.9727917E0,1.1701608E0,-5.8016056E-1,-4.6509597E-1,1.1203946E0,1.1464055E0,-5.9699076E-1,9.8236454E-1,-5.787566E-1,1.16385E0,7.988775E-1,-5.450269E-1,8.584931E-1,-6.5606815E-1,7.757248E-1,1.443178E0,-4.612588E-1,1.1606122E0,6.4667785E-1,1.1788722E0,1.0719281E0,1.1738478E0,-5.1224655E-1],"categories":[],"categories_nodes":[],"categories_segments":[],"categories_sizes":[],"default_left":[1,1,1,1,1,1,0,1,1,1,1,1,0,1,1,1,0,1,0,1,0,1,1,1,1,1,1,1,0,1,1,1,1,1,1,1,0,0,0,0,0,0,0,0,0,0,0,0,0,0,0,0,0,0,0,0,0,0,0,0,0],"id":5,"left_children":[1,3,5,7,9,11,-1,13,15,17,19,21,-1,23,25,27,-1,29,-1,31,-1,33,35,37,39,41,43,45,-1,47,49,51,53,55,57,59,-1,-1,-1,-1,-1,-1,-1,-1,-1,-1,-1,-1,-1,-1,-1,-1,-1,-1,-1,-1,-1,-1,-1,-1,-1],"loss_changes":[2.910662E3,1.0049188E3,1.327124E2,7.2052454E2,1.8423721E2,3.229785E1,0E0,1.5273364E2,7.439526E1,1.2816101E1,6.629809E1,1.1389893E1,0E0,8.580554E1,5.572991E1,3.359143E1,0E0,1.2724609E1,0E0,7.4353745E1,0E0,6.8344727E0,2.8297085E1,2.679834E1,3.2794487E1,2.5814316E1,7.086888E1,3.3912445E1,0E0,4.8276978E0,4.5277905E0,3.635166E1,1.4034035E1,3.2639587E1,3.0800781E0,5.3564835E0,0E0,0E0,0E0,0E0,0E0,0E0,0E0,0E0,0E0,0E0,0E0,0E0,0E0,0E0,0E0,0E0,0E0,0E0,0E0,0E0,0E0,0E0,0E0,0E0,0E0],"parents":[2147483647,0,0,1,1,2,2,3,3,4,4,5,5,7,7,8,8,9,9,10,10,11,11,13,13,14,14,15,15,17,17,19,19,21,21,22,22,23,23,24,24,25,25,26,26,27,27,29,29,30,30,31,31,32,32,33,33,34,34,35,35],"right_children":[2,4,6,8,10,12,-1,14,16,18,20,22,-1,24,26,28,-1,30,-1,32,-1,34,36,38,40,42,44,46,-1,48,50,52,54,56,58,60,-1,-1,-1,-1,-1,-1,-1,-1,-1,-1,-1,-1,-1,-1,-1,-1,-1,-1,-1,-1,-1,-1,-1,-1,-1],"split_conditions":[6.047047E-1,6.2973374E-1,5.390351E0,5.996833E-1,4.2667037E-1,3.7154057E0,-1.81807E-1,9.762701E-1,2.530366E0,3.3663967E0,1.0848479E0,2.380928E0,-1.7090915E-1,1.5042711E0,3.9970613E-1,4.1465244E0,-1.8083423E-1,6.549889E0,-1.6248366E-1,1.1588979E0,-1.8326832E-1,4.847291E-1,3.1106684E0,1.6483316E0,6.629245E-1,4.2705884E0,1.1588979E0,3.5975416E0,-1.7396164E-1,9.762701E-1,2.1820655E0,5.0299823E-1,6.629245E-1,5.0299823E-1,1.0657148E0,1.1588979E0,-1.8076935E-1,-1.808917E-1,5.918375E-1,3.5104823E-1,-1.7404817E-1,-1.395288E-1,3.361184E-1,3.4392166E-1,-1.7909724E-1,2.9470938E-1,-1.7362697E-1,3.49155E-1,2.3966326E-1,-1.6350807E-1,2.5754794E-1,-1.9682045E-1,2.3271745E-1,4.3295345E-1,-1.3837765E-1,3.481837E-1,1.9400336E-1,3.536617E-1,3.2157844E-1,3.5215434E-1,-1.5367398E-1],"split_indices":[44,83,74,30,1,102,0,43,35,93,112,5,0,49,87,58,0,37,0,6,0,109,75,33,22,18,6,14,0,43,17,70,22,70,76,6,0,0,0,0,0,0,0,0,0,0,0,0,0,0,0,0,0,0,0,0,0,0,0,0,0],"split_type":[0,0,0,0,0,0,0,0,0,0,0,0,0,0,0,0,0,0,0,0,0,0,0,0,0,0,0,0,0,0,0,0,0,0,0,0,0,0,0,0,0,0,0,0,0,0,0,0,0,0,0,0,0,0,0,0,0,0,0,0,0],"sum_hessian":[8.243453E3,5.695615E3,2.5478384E3,4.7286123E3,9.6700275E2,2.5018271E3,4.6011223E1,4.257783E3,4.7082925E2,5.3860693E2,4.2839578E2,2.4908203E3,1.1006797E1,4.0349114E3,2.2287172E2,4.347149E2,3.6114338E1,5.3442694E2,4.179979E0,3.5054605E2,7.784974E1,2.4449639E3,4.5856285E1,3.983365E3,5.154634E1,1.0001783E2,1.228539E2,4.2008054E2,1.4634385E1,5.259689E2,8.458085E0,2.6117203E2,8.9374E1,6.226479E2,1.8223162E3,3.2481598E1,1.3374687E1,3.9802673E3,3.0977585E0,3.741321E1,1.4133132E1,8.939116E1,1.0626677E1,9.24943E1,3.0359592E1,4.0629343E2,1.3787093E1,4.7627448E2,4.9694412E1,6.035051E0,2.423034E0,1.8379297E1,2.4279274E2,3.0921185E0,8.628188E1,4.45194E2,1.7745387E2,1.2729447E3,5.4937134E2,3.1019638E1,1.461961E0],"tree_param":{"num_deleted":"0","num_feature":"115","num_nodes":"61","size_leaf_vector":"0"}},{"base_weights":[-5.149173E-1,-5.9965855E-1,-2.4231102E-1,-6.1435324E-1,-4.5112437E-1,-5.4987943E-1,1.2073002E-1,-6.1758745E-1,-5.5328506E-1,-5.364015E-1,1.16354436E-1,-4.4236845E-1,-6.180278E-1,-1.3198517E-1,8.8591814E-1,-6.1694795E-1,2.1049155E-2,-3.8095677E-1,-6.172704E-1,7.94571E-1,-4.6979612E-1,-5.832399E-1,-2.5852835E-1,-4.1725093E-1,2.8078756E-1,1.0726852E0,-2.427115E-1,1.2234225E0,-5.9795177E-1,-6.1294025E-1,-1.1865764E-1,-5.542996E-1,1.3004786E0,-6.025529E-1,1.0385524E0,-6.1582065E-1,8.299422E-1,-4.4264138E-1,4.6772763E-1,-5.544253E-1,1.1587238E0,5.883469E-1,-6.117976E-1,1.0964942E0,-4.3496042E-1,-5.935786E-1,1.067328E0,2.2707845E-1,-6.021903E-1,-3.991667E-1,-6.028991E-1,-6.054727E-1,1.0504307E0,-5.757938E-1,5.6633633E-1,6.6357476E-1,-5.661041E-1,1.1136906E0,-3.8430926E-1],"categories":[],"categories_nodes":[],"categories_segments":[],"categories_sizes":[],"default_left":[1,1,1,1,1,1,1,0,1,1,1,1,0,1,1,0,1,1,0,1,1,1,1,1,1,1,1,0,0,0,1,0,0,0,0,0,0,1,1,1,0,1,0,1,0,0,0,0,0,0,0,0,0,0,0,0,0,0,0],"id":6,"left_children":[1,3,5,7,9,11,13,-1,15,17,19,21,-1,23,25,-1,27,29,-1,31,33,35,37,39,41,43,45,-1,-1,-1,47,-1,-1,-1,-1,-1,-1,49,51,53,-1,55,-1,57,-1,-1,-1,-1,-1,-1,-1,-1,-1,-1,-1,-1,-1,-1,-1],"loss_changes":[1.6258032E2,1.1450195E1,1.8677411E2,6.234131E-1,2.3652336E1,6.3601685E0,1.4857391E2,0E0,9.350792E0,5.0943146E0,2.6016462E1,9.037056E0,0E0,6.817494E1,4.046472E1,0E0,2.0417969E1,8.914413E0,0E0,2.138106E1,7.6802564E0,9.722511E0,2.1027409E1,7.461693E1,6.5367485E1,6.357849E0,1.3456163E1,0E0,0E0,0E0,1.1932361E1,0E0,0E0,0E0,0E0,0E0,0E0,6.283722E-1,2.0632954E1,7.881073E0,0E0,1.57151375E1,0E0,4.542328E0,0E0,0E0,0E0,0E0,0E0,0E0,0E0,0E0,0E0,0E0,0E0,0E0,0E0,0E0,0E0],"parents":[2147483647,0,0,1,1,2,2,3,3,4,4,5,5,6,6,8,8,9,9,10,10,11,11,13,13,14,14,16,16,17,17,19,19,20,20,21,21,22,22,23,23,24,24,25,25,26,26,30,30,37,37,38,38,39,39,41,41,43,43],"right_children":[2,4,6,8,10,12,14,-1,16,18,20,22,-1,24,26,-1,28,30,-1,32,34,36,38,40,42,44,46,-1,-1,-1,48,-1,-1,-1,-1,-1,-1,50,52,54,-1,56,-1,58,-1,-1,-1,-1,-1,-1,-1,-1,-1,-1,-1,-1,-1,-1,-1],"split_conditions":[6.658902E-1,9.762701E-1,6.629245E-1,1.5042711E0,1.0179198E0,6.047047E-1,1.5042711E0,-1.8527624E-1,6.629245E-1,9.972777E-1,6.2602156E-1,5.996833E-1,-1.8540835E-1,6.2602156E-1,9.972777E-1,-1.8508439E-1,3.9970613E-1,6.2973374E-1,-1.8518113E-1,1.0657148E0,1.6483316E0,6.2602156E-1,9.762701E-1,1.6483316E0,9.762701E-1,4.1465244E0,1.0179198E0,3.6702678E-1,-1.7938554E-1,-1.8388209E-1,1.0657148E0,-1.6628988E-1,3.901436E-1,-1.8076587E-1,3.1156573E-1,-1.847462E-1,2.4898268E-1,6.1135554E-1,6.1135554E-1,2.778663E0,3.4761715E-1,1.1588979E0,-1.8353927E-1,2.9469528E0,-1.3048813E-1,-1.7807359E-1,3.2019842E-1,6.812354E-2,-1.806571E-1,-1.19750015E-1,-1.8086973E-1,-1.8164182E-1,3.1512922E-1,-1.7273815E-1,1.6990091E-1,1.9907244E-1,-1.6983125E-1,3.341072E-1,-1.1529278E-1],"split_indices":[67,43,22,49,64,44,49,0,22,21,42,30,0,42,21,0,87,83,0,76,33,42,43,33,43,58,64,0,0,0,76,0,0,0,0,0,0,40,40,101,0,6,0,11,0,0,0,0,0,0,0,0,0,0,0,0,0,0,0],"split_type":[0,0,0,0,0,0,0,0,0,0,0,0,0,0,0,0,0,0,0,0,0,0,0,0,0,0,0,0,0,0,0,0,0,0,0,0,0,0,0,0,0,0,0,0,0,0,0,0,0,0,0,0,0,0,0,0,0,0,0],"sum_hessian":[7.0430903E3,5.37198E3,1.6711102E3,4.885514E3,4.8646588E2,9.043934E2,7.6671686E2,4.6311304E3,2.5438388E2,4.2296075E2,6.350512E1,3.537726E2,5.506208E2,5.7698584E2,1.8973099E2,2.2893324E2,2.5450634E1,1.4669568E2,2.7626508E2,2.9275627E1,3.4229492E1,1.9906342E2,1.5470918E2,3.41184E2,2.3580188E2,1.6283449E2,2.6896503E1,8.317645E0,1.713299E1,7.7137054E1,6.9558624E1,7.9591026E0,2.1316525E1,3.201245E1,2.2170424E0,1.9512897E2,3.9344404E0,1.2373234E2,3.0976849E1,3.1446118E2,2.6722807E1,1.7562675E2,6.0175114E1,1.6057143E2,2.2630515E0,2.1645975E1,5.2505283E0,4.086772E1,2.8690907E1,1.00074844E2,2.3657494E1,1.0886827E1,2.0090021E1,3.0905496E2,5.406218E0,1.6528166E2,1.0345101E1,1.589732E2,1.5982258E0],"tree_param":{"num_deleted":"0","num_feature":"115","num_nodes":"59","size_leaf_vector":"0"}},{"base_weights":[-5.515578E-1,-5.8252305E-1,4.406537E-1,-5.876226E-1,1.4981523E-1,-2.1515253E-1,8.738559E-1,-5.967332E-1,-4.8245585E-1,-5.976141E-1,9.345006E-1,-6.154139E-1,1.191403E0,1.080995E0,-5.822933E-1,-6.128207E-1,-5.517462E-1,-5.429893E-1,-8.959097E-2,-4.943872E-1,1.2172867E0,1.196847E0,-5.505624E-1,-6.139917E-1,-2.8911662E-1,-5.608262E-1,-1.658205E-1,-5.582838E-1,4.855826E-1,5.6957835E-1,-6.0405064E-1,-6.162535E-1,-4.8641822E-1,-5.945562E-1,1.2884903E-1,-5.279635E-1,-6.175235E-1,2.3671593E-1,-5.9105605E-1,-5.988877E-1,-3.9702925E-1,1.2136303E0,-4.6858126E-1,-5.6923336E-1,1.1704881E0],"categories":[],"categories_nodes":[],"categories_segments":[],"categories_sizes":[],"default_left":[1,1,1,1,1,1,1,1,1,0,1,0,0,1,0,1,1,1,1,0,0,0,0,1,1,1,1,1,1,1,0,0,0,0,0,0,0,0,0,0,0,0,0,0,0],"id":7,"left_children":[1,3,5,7,9,11,13,15,17,-1,19,-1,-1,21,-1,23,25,27,29,-1,-1,-1,-1,31,33,35,37,39,41,43,-1,-1,-1,-1,-1,-1,-1,-1,-1,-1,-1,-1,-1,-1,-1],"loss_changes":[2.1497314E2,2.539917E1,6.0436226E1,6.1608887E0,2.8513453E1,4.867888E1,3.9209396E1,4.1418457E0,1.2836739E1,0E0,1.0155113E1,0E0,0E0,2.1891083E1,0E0,1.5473633E0,5.6557007E0,7.653702E0,2.5281624E1,0E0,0E0,0E0,0E0,1.0081787E0,2.4117894E0,2.6595764E0,6.83799E0,2.7929382E0,5.716754E0,2.3077572E1,0E0,0E0,0E0,0E0,0E0,0E0,0E0,0E0,0E0,0E0,0E0,0E0,0E0,0E0,0E0],"parents":[2147483647,0,0,1,1,2,2,3,3,4,4,5,5,6,6,7,7,8,8,10,10,13,13,15,15,16,16,17,17,18,18,23,23,24,24,25,25,26,26,27,27,28,28,29,29],"right_children":[2,4,6,8,10,12,14,16,18,-1,20,-1,-1,22,-1,24,26,28,30,-1,-1,-1,-1,32,34,36,38,40,42,44,-1,-1,-1,-1,-1,-1,-1,-1,-1,-1,-1,-1,-1,-1,-1],"split_conditions":[3.1106684E0,6.549889E0,6.2602156E-1,1.5042711E0,6.2973374E-1,2.380928E0,1.6733025E0,5.0299823E-1,1.1765964E0,-1.7928424E-1,1.0657148E0,-1.8462418E-1,3.5742092E-1,1.2555322E1,-1.7468798E-1,3.6749296E0,4.2705884E0,4.3091307E0,6.629245E-1,-1.4831617E-1,3.6518604E-1,3.590541E-1,-1.6516872E-1,3.3663967E0,6.2973374E-1,9.0977633E-1,1.0538784E-1,1.0657148E0,9.762701E-1,6.658902E-1,-1.812152E-1,-1.8487605E-1,-1.4592548E-1,-1.7836687E-1,3.865471E-2,-1.5838906E-1,-1.8525705E-1,7.1014784E-2,-1.7731681E-1,-1.7966631E-1,-1.1910878E-1,3.640891E-1,-1.4057438E-1,-1.7077002E-1,3.5114646E-1],"split_indices":[75,37,42,49,83,5,16,70,80,0,76,0,0,41,0,57,18,61,22,0,0,0,0,93,83,72,82,76,43,67,0,0,0,0,0,0,0,0,0,0,0,0,0,0,0],"split_type":[0,0,0,0,0,0,0,0,0,0,0,0,0,0,0,0,0,0,0,0,0,0,0,0,0,0,0,0,0,0,0,0,0,0,0,0,0,0,0,0,0,0,0,0,0],"sum_hessian":[6.98753E3,6.77646E3,2.110694E2,6.729796E3,4.6664337E1,8.416259E1,1.2690681E2,6.1889707E3,5.4082526E2,2.402163E1,2.2642708E1,6.595605E1,1.8206547E1,1.113279E2,1.5578903E1,4.54945E3,1.6395205E3,4.682883E2,7.253697E1,3.617186E0,1.902552E1,1.0419571E2,7.13219E0,4.532158E3,1.7291727E1,1.60139E3,3.81305E1,4.6187756E2,6.410741E0,3.174958E1,4.078739E1,4.449441E3,8.2717415E1,9.746621E0,7.545106E0,1.0203128E3,5.810772E2,1.9815802E1,1.8314701E1,3.668028E2,9.507475E1,3.481982E0,2.9287586E0,1.09846945E1,2.0764887E1],"tree_param":{"num_deleted":"0","num_feature":"115","num_nodes":"45","size_leaf_vector":"0"}},{"base_weights":[5.173056E-1,7.160162E-1,-5.87378E-1,8.078009E-1,-2.600218E-1,8.543842E-1,-1.2447202E-1,-5.335096E-1,8.9206356E-1,8.658582E-1,-5.853157E-1,-3.4135255E-1,8.878551E-1,-4.0875903E-1,-5.8885086E-1,8.8002586E-1,1.3474095E-1,6.3452584E-1,-5.89377E-1,-1.7561696E-2,-5.864649E-1,8.847543E-1,-5.57808E-1,5.31337E-1,-6.0769916E-1,8.9021194E-1,-5.4815674E-1,-5.7609E-1,9.1969305E-1],"categories":[],"categories_nodes":[],"categories_segments":[],"categories_sizes":[],"default_left":[1,1,0,1,1,1,1,1,0,1,0,1,0,1,0,1,1,1,0,1,0,0,0,0,0,0,0,0,0],"id":8,"left_children":[1,3,-1,5,7,9,11,13,-1,15,-1,17,-1,19,-1,21,23,25,-1,27,-1,-1,-1,-1,-1,-1,-1,-1,-1],"loss_changes":[1.9542639E3,6.7606885E2,0E0,2.995913E2,2.0503506E2,1.0900537E2,7.254815E1,3.3859253E0,0E0,6.738086E1,0E0,6.614105E1,0E0,1.1438789E1,0E0,4.3953613E1,3.714587E1,1.7284632E1,0E0,2.7999651E1,0E0,0E0,0E0,0E0,0E0,0E0,0E0,0E0,0E0],"parents":[2147483647,0,0,1,1,3,3,4,4,5,5,6,6,7,7,9,9,11,11,13,13,15,15,16,16,17,17,19,19],"right_children":[2,4,-1,6,8,10,12,14,-1,16,-1,18,-1,20,-1,22,24,26,-1,28,-1,-1,-1,-1,-1,-1,-1,-1,-1],"split_conditions":[6.047047E-1,6.2973374E-1,-1.7621341E-1,5.996833E-1,1.0848479E0,1.5042711E0,2.530366E0,3.9970613E-1,2.6761907E-1,6.2602156E-1,-1.7559472E-1,4.847291E-1,2.6635656E-1,5.0299823E-1,-1.7665526E-1,4.2705884E0,6.658902E-1,1.6733025E0,-1.768131E-1,4.2667037E-1,-1.7593947E-1,2.654263E-1,-1.673424E-1,1.5940112E-1,-1.8230975E-1,2.670636E-1,-1.6444702E-1,-1.72827E-1,2.7590793E-1],"split_indices":[44,83,0,30,112,49,35,87,0,42,0,109,0,70,0,18,67,16,0,1,0,0,0,0,0,0,0,0,0],"split_type":[0,0,0,0,0,0,0,0,0,0,0,0,0,0,0,0,0,0,0,0,0,0,0,0,0,0,0,0,0],"sum_hessian":[8.899838E3,7.5433003E3,1.3565375E3,6.8950737E3,6.4822656E2,6.56702E3,3.280537E2,5.2430206E2,1.2392453E2,6.5154917E3,5.1528297E1,2.70718E2,5.7335705E1,1.6369221E2,3.6060983E2,6.3914346E3,1.2405731E2,5.4545326E1,2.1617268E2,5.147508E1,1.1221714E2,6.370868E3,2.056647E1,8.104767E1,4.3009644E1,4.505262E1,9.492705E0,3.249564E1,1.8979437E1],"tree_param":{"num_deleted":"0","num_feature":"115","num_nodes":"29","size_leaf_vector":"0"}},{"base_weights":[1.513228E-1,-1.9148394E-1,8.075363E-1,-3.7118545E-1,5.525052E-1,8.279333E-1,-5.713729E-1,-4.9996582E-1,5.7513094E-1,8.292408E-1,1.8851645E-1,8.3294696E-1,-5.3007185E-1,-5.4763186E-1,2.507994E-1,6.513531E-1,-5.68209E-1,8.4086204E-1,-5.4340243E-1,3.2674477E-1,-5.7744974E-1,8.529616E-1,6.973432E-1,-5.646359E-1,5.517859E-1,-2.4366418E-1,6.019169E-1,7.080102E-1,-1.7582726E-1,8.83545E-1,4.9290532E-1,5.0850976E-1,-3.2170525E-1,8.614162E-1,5.997414E-1,-2.4611514E-2,7.4986017E-1,-5.6805426E-1,1.3494501E0,8.909326E-1,-5.432406E-1,-4.1107452E-1,8.5664505E-1,9.0062904E-1,-5.631411E-1,7.741175E-1,-3.815442E-2,-6.353469E-1,9.510203E-1,2.0981254E-1,1.0054352E0,-6.051858E-1,5.778147E-1,1.0001382E0,-4.0323904E-1,8.432172E-1,8.9573264E-1,9.1283906E-1,-2.2156762E-1,5.165229E-1,-5.7710654E-1,7.9640687E-1,3.8576595E-2],"categories":[],"categories_nodes":[],"categories_segments":[],"categories_sizes":[],"default_left":[1,1,1,1,1,1,0,1,1,1,1,1,0,1,1,1,0,1,0,1,0,1,1,1,1,1,1,1,1,0,1,1,1,1,1,1,1,0,0,0,0,0,0,0,0,0,0,0,0,0,0,0,0,0,0,0,0,0,0,0,0,0,0],"id":9,"left_children":[1,3,5,7,9,11,-1,13,15,17,19,21,-1,23,25,27,-1,29,-1,31,-1,33,35,37,39,41,43,45,47,-1,49,51,53,55,57,59,61,-1,-1,-1,-1,-1,-1,-1,-1,-1,-1,-1,-1,-1,-1,-1,-1,-1,-1,-1,-1,-1,-1,-1,-1,-1,-1],"loss_changes":[1.6949384E3,6.6193365E2,7.318909E1,4.8619415E2,9.687698E1,1.7790283E1,0E0,1.2575049E2,4.2032898E1,9.181854E0,4.437799E1,6.296509E0,0E0,6.201996E1,3.664723E1,2.1151077E1,0E0,7.6254272E0,0E0,4.1910934E1,0E0,4.2105713E0,1.2608017E1,2.2038696E1,1.9342709E1,1.6564043E1,4.339253E1,2.0751526E1,1.5911453E1,0E0,8.721805E0,2.173259E1,8.826862E0,5.7788086E-1,1.9394552E1,7.319331E0,1.02183075E1,0E0,0E0,0E0,0E0,0E0,0E0,0E0,0E0,0E0,0E0,0E0,0E0,0E0,0E0,0E0,0E0,0E0,0E0,0E0,0E0,0E0,0E0,0E0,0E0,0E0,0E0],"parents":[2147483647,0,0,1,1,2,2,3,3,4,4,5,5,7,7,8,8,9,9,10,10,11,11,13,13,14,14,15,15,17,17,19,19,21,21,22,22,23,23,24,24,25,25,26,26,27,27,28,28,30,30,31,31,32,32,33,33,34,34,35,35,36,36],"right_children":[2,4,6,8,10,12,-1,14,16,18,20,22,-1,24,26,28,-1,30,-1,32,-1,34,36,38,40,42,44,46,48,-1,50,52,54,56,58,60,62,-1,-1,-1,-1,-1,-1,-1,-1,-1,-1,-1,-1,-1,-1,-1,-1,-1,-1,-1,-1,-1,-1,-1,-1,-1,-1],"split_conditions":[6.047047E-1,6.2973374E-1,5.390351E0,5.996833E-1,4.2667037E-1,3.7154057E0,-1.7141189E-1,9.762701E-1,2.530366E0,3.3663967E0,1.0848479E0,6.629245E-1,-1.5902156E-1,1.5042711E0,3.9970613E-1,3.1921427E0,-1.704627E-1,9.762701E-1,-1.6302073E-1,1.1588979E0,-1.7323492E-1,1.1765964E0,1.0538784E-1,1.0657148E0,6.629245E-1,4.2705884E0,1.1588979E0,1.4745897E0,1.6733025E0,2.650635E-1,4.2705884E0,5.0299823E-1,6.629245E-1,3.9970613E-1,1.1588979E0,1.6483316E0,2.380928E0,-1.7041628E-1,4.0483505E-1,2.672798E-1,-1.6297218E-1,-1.2332236E-1,2.5699353E-1,2.7018872E-1,-1.6894233E-1,2.3223527E-1,-1.1446326E-2,-1.9060408E-1,2.853061E-1,6.2943764E-2,3.016306E-1,-1.8155575E-1,1.7334442E-1,3.0004147E-1,-1.2097172E-1,2.5296518E-1,2.687198E-1,2.7385172E-1,-6.647029E-2,1.5495688E-1,-1.7313197E-1,2.3892207E-1,1.1572979E-2],"split_indices":[44,83,74,30,1,102,0,43,35,93,112,22,0,49,87,85,0,43,0,6,0,80,82,76,22,18,6,59,16,0,18,70,22,87,6,33,5,0,0,0,0,0,0,0,0,0,0,0,0,0,0,0,0,0,0,0,0,0,0,0,0,0,0],"split_type":[0,0,0,0,0,0,0,0,0,0,0,0,0,0,0,0,0,0,0,0,0,0,0,0,0,0,0,0,0,0,0,0,0,0,0,0,0,0,0,0,0,0,0,0,0,0,0,0,0,0,0,0,0,0,0,0,0,0,0,0,0,0,0],"sum_hessian":[7.5328984E3,4.948503E3,2.5843958E3,3.9861885E3,9.6231415E2,2.547118E3,3.727779E1,3.5091184E3,4.7707007E2,5.459544E2,4.163598E2,2.538134E3,8.983866E0,3.2998796E3,2.0923874E2,4.4765677E2,2.941329E1,5.417551E2,4.1992598E0,3.5319473E2,6.316505E1,2.2070857E3,3.3104834E2,3.2500989E3,4.9780846E1,8.701098E1,1.2222775E2,4.190952E2,2.8561554E1,4.811896E2,6.0565514E1,2.7603583E2,7.715892E1,2.1334512E3,7.363467E1,2.2484451E1,3.085639E2,3.2450068E3,5.0920453E0,3.8151207E1,1.162964E1,7.6064316E1,1.0946666E1,9.746534E1,2.4762413E1,3.8495245E2,3.4142757E1,2.0598017E1,7.963537E0,3.9923424E1,2.0642092E1,1.5718309E1,2.603175E2,3.8282316E0,7.333069E1,1.4108218E3,7.2262933E2,5.3230724E1,2.0403944E1,1.1391903E1,1.1092549E1,2.8949927E2,1.9064623E1],"tree_param":{"num_deleted":"0","num_feature":"115","num_nodes":"63","size_leaf_vector":"0"}},{"base_weights":[-4.7550812E-1,-5.652632E-1,-2.0677106E-1,-5.818346E-1,-4.0458778E-1,-5.0881463E-1,1.1114595E-1,-5.854009E-1,-5.152311E-1,-4.9403498E-1,1.4533672E-1,-3.9193967E-1,-5.8636713E-1,-9.869445E-2,6.8345726E-1,-5.843483E-1,3.8462E-2,-3.2655543E-1,-5.8645725E-1,6.909459E-1,-4.1801667E-1,-5.464953E-1,-2.0911242E-1,-3.7281203E-1,2.3828687E-1,8.116387E-1,-2.1987706E-1,9.9455595E-1,-5.6515366E-1,-5.8129907E-1,-7.288609E-2,-5.1831245E-1,1.0600595E0,-5.674531E-1,9.0423423E-1,-5.8323246E-1,6.719745E-1,-3.911497E-1,4.1560867E-1,-5.116981E-1,9.2222583E-1,4.6451026E-1,-5.8178616E-1,8.816433E-1,3.6649612E-1,-5.6189317E-1,8.230153E-1,2.2531827E-1,-5.702534E-1,-3.4547174E-1,-5.689182E-1,8.8171357E-1,-5.7572323E-1,-5.3601664E-1,4.7093937E-1,5.151463E-1,-5.2746135E-1,8.957242E-1,-3.4497315E-1,8.3798254E-1,-4.2141488E-1],"categories":[],"categories_nodes":[],"categories_segments":[],"categories_sizes":[],"default_left":[1,1,1,1,1,1,1,0,1,1,1,1,0,1,1,0,1,1,0,1,1,1,1,1,1,1,1,0,0,0,1,0,0,0,0,0,0,1,1,1,0,1,0,1,1,0,0,0,0,0,0,0,0,0,0,0,0,0,0,0,0],"id":10,"left_children":[1,3,5,7,9,11,13,-1,15,17,19,21,-1,23,25,-1,27,29,-1,31,33,35,37,39,41,43,45,-1,-1,-1,47,-1,-1,-1,-1,-1,-1,49,51,53,-1,55,-1,57,59,-1,-1,-1,-1,-1,-1,-1,-1,-1,-1,-1,-1,-1,-1,-1,-1],"loss_changes":[1.4107495E2,1.1446777E1,1.4093762E2,6.4245605E-1,2.0410599E1,6.591034E0,8.600731E1,0E0,8.073086E0,5.3168488E0,1.8306326E1,8.452705E0,0E0,4.853745E1,2.2423355E1,0E0,1.457657E1,8.280965E0,0E0,1.4009224E1,6.334805E0,7.718464E0,1.6141445E1,5.2562508E1,4.4030396E1,4.9262314E0,9.258246E0,0E0,0E0,0E0,9.870094E0,0E0,0E0,0E0,0E0,0E0,0E0,6.911335E-1,1.5381039E1,6.5181656E0,0E0,9.58601E0,0E0,2.8108215E0,9.492868E0,0E0,0E0,0E0,0E0,0E0,0E0,0E0,0E0,0E0,0E0,0E0,0E0,0E0,0E0,0E0,0E0],"parents":[2147483647,0,0,1,1,2,2,3,3,4,4,5,5,6,6,8,8,9,9,10,10,11,11,13,13,14,14,16,16,17,17,19,19,20,20,21,21,22,22,23,23,24,24,25,25,26,26,30,30,37,37,38,38,39,39,41,41,43,43,44,44],"right_children":[2,4,6,8,10,12,14,-1,16,18,20,22,-1,24,26,-1,28,30,-1,32,34,36,38,40,42,44,46,-1,-1,-1,48,-1,-1,-1,-1,-1,-1,50,52,54,-1,56,-1,58,60,-1,-1,-1,-1,-1,-1,-1,-1,-1,-1,-1,-1,-1,-1,-1,-1],"split_conditions":[6.658902E-1,9.762701E-1,6.629245E-1,1.5042711E0,1.0179198E0,6.047047E-1,1.5042711E0,-1.7562027E-1,6.629245E-1,9.972777E-1,6.2602156E-1,5.996833E-1,-1.7591015E-1,6.2602156E-1,9.972777E-1,-1.753045E-1,3.9970613E-1,6.2973374E-1,-1.7593718E-1,1.0657148E0,1.6483316E0,6.2602156E-1,9.762701E-1,1.6483316E0,9.762701E-1,4.847291E-1,1.0179198E0,2.9836679E-1,-1.695461E-1,-1.7438972E-1,1.0657148E0,-1.5549374E-1,3.1801787E-1,-1.7023593E-1,2.7127028E-1,-1.7496975E-1,2.0159236E-1,6.1135554E-1,9.972777E-1,2.778663E0,2.7666777E-1,1.1588979E0,-1.7453586E-1,2.9469528E0,6.2602156E-1,-1.6856796E-1,2.469046E-1,6.759548E-2,-1.7107601E-1,-1.03641525E-1,-1.7067547E-1,2.645141E-1,-1.7271698E-1,-1.60805E-1,1.4128181E-1,1.545439E-1,-1.5823841E-1,2.6871726E-1,-1.0349195E-1,2.5139478E-1,-1.2642448E-1],"split_indices":[67,43,22,49,64,44,49,0,22,21,42,30,0,42,21,0,87,83,0,76,33,42,43,33,43,109,64,0,0,0,76,0,0,0,0,0,0,40,21,101,0,6,0,11,42,0,0,0,0,0,0,0,0,0,0,0,0,0,0,0,0],"split_type":[0,0,0,0,0,0,0,0,0,0,0,0,0,0,0,0,0,0,0,0,0,0,0,0,0,0,0,0,0,0,0,0,0,0,0,0,0,0,0,0,0,0,0,0,0,0,0,0,0,0,0,0,0,0,0,0,0,0,0,0,0],"sum_hessian":[5.852597E3,4.386465E3,1.4661323E3,3.9739836E3,4.124811E2,7.5152765E2,7.146047E2,3.764619E3,2.093648E2,3.54863E2,5.761812E1,3.021812E2,4.493464E2,5.2349176E2,1.9111296E2,1.8608102E2,2.3283785E1,1.2780298E2,2.2706003E2,2.9154968E1,2.846315E1,1.6267361E2,1.395076E2,2.8861304E2,2.3487871E2,1.6745317E2,2.3659788E1,8.760295E0,1.4523489E1,6.3122044E1,6.468093E1,6.7235703E0,2.2431396E1,2.6085857E1,2.3772936E0,1.584186E2,4.2550187E0,1.0831857E2,3.1189032E1,2.6120502E2,2.7408009E1,1.8443459E2,5.0444115E1,1.4385022E2,2.3602942E1,1.8164097E1,5.4956913E0,4.0778515E1,2.3902416E1,8.851727E1,1.9801302E1,2.1289637E1,9.899395E0,2.5534032E2,5.864709E0,1.7593454E2,8.500042E0,1.4248434E2,1.3658799E0,1.4726841E1,8.8761E0],"tree_param":{"num_deleted":"0","num_feature":"115","num_nodes":"61","size_leaf_vector":"0"}},{"base_weights":[-5.136106E-1,-5.449597E-1,3.65254E-1,-5.503402E-1,1.3732097E-1,-1.9451135E-1,6.931206E-1,-5.604794E-1,-4.3608177E-1,-5.654247E-1,7.445255E-1,-5.8280915E-1,8.950052E-1,8.3879703E-1,-5.466094E-1,-5.7966876E-1,-5.0799185E-1,-4.9862918E-1,-4.8228376E-2,-4.752851E-1,9.63154E-1,9.185427E-1,-5.102845E-1,-5.81035E-1,-2.5147703E-1,-5.184164E-1,-1.0593612E-1,-5.156542E-1,4.651647E-1,5.10298E-1,-5.6866837E-1,-5.8374465E-1,-4.3442568E-1,2.0925732E-1,-5.702459E-1,-4.8114145E-1,-5.851711E-1,2.6608884E-1,-5.5889434E-1,-5.4721075E-1,-2.1479663E-1,1.0321612E0,-4.3219754E-1,-5.307594E-1,9.512833E-1],"categories":[],"categories_nodes":[],"categories_segments":[],"categories_sizes":[],"default_left":[1,1,1,1,1,1,1,1,1,0,1,0,0,1,0,1,1,1,1,0,0,0,0,1,1,1,1,1,1,1,0,0,0,0,0,0,0,0,0,0,0,0,0,0,0],"id":11,"left_children":[1,3,5,7,9,11,13,15,17,-1,19,-1,-1,21,-1,23,25,27,29,-1,-1,-1,-1,31,33,35,37,39,41,43,-1,-1,-1,-1,-1,-1,-1,-1,-1,-1,-1,-1,-1,-1,-1],"loss_changes":[1.5903967E2,2.0512085E1,3.668651E1,6.154785E0,1.9349176E1,3.1973948E1,2.318071E1,4.812134E0,1.1007202E1,0E0,6.919158E0,0E0,0E0,1.2623543E1,0E0,1.5152588E0,5.667938E0,6.6633377E0,1.8967758E1,0E0,0E0,0E0,0E0,1.2121582E0,2.63443E0,3.02948E0,6.175526E0,3.5390625E0,4.1709533E0,1.4975639E1,0E0,0E0,0E0,0E0,0E0,0E0,0E0,0E0,0E0,0E0,0E0,0E0,0E0,0E0,0E0],"parents":[2147483647,0,0,1,1,2,2,3,3,4,4,5,5,6,6,7,7,8,8,10,10,13,13,15,15,16,16,17,17,18,18,23,23,24,24,25,25,26,26,27,27,28,28,29,29],"right_children":[2,4,6,8,10,12,14,16,18,-1,20,-1,-1,22,-1,24,26,28,30,-1,-1,-1,-1,32,34,36,38,40,42,44,-1,-1,-1,-1,-1,-1,-1,-1,-1,-1,-1,-1,-1,-1,-1],"split_conditions":[3.1106684E0,6.549889E0,6.2602156E-1,1.5042711E0,6.2973374E-1,2.380928E0,1.6733025E0,5.0299823E-1,1.1765964E0,-1.6962741E-1,1.0657148E0,-1.7484275E-1,2.6850158E-1,1.2555322E1,-1.6398282E-1,3.6749296E0,4.2705884E0,4.3091307E0,6.629245E-1,-1.4258555E-1,2.889462E-1,2.7556282E-1,-1.5308535E-1,3.3663967E0,2.0116634E0,9.0977633E-1,1.0538784E-1,1.6733025E0,9.762701E-1,6.658902E-1,-1.7060052E-1,-1.751234E-1,-1.3032772E-1,6.27772E-2,-1.7107378E-1,-1.4434244E-1,-1.7555134E-1,7.982665E-2,-1.6766831E-1,-1.6416323E-1,-6.443899E-2,3.096484E-1,-1.2965927E-1,-1.5922782E-1,2.8538498E-1],"split_indices":[75,37,42,49,83,5,16,70,80,0,76,0,0,41,0,57,18,61,22,0,0,0,0,93,56,72,82,16,43,67,0,0,0,0,0,0,0,0,0,0,0,0,0,0,0],"split_type":[0,0,0,0,0,0,0,0,0,0,0,0,0,0,0,0,0,0,0,0,0,0,0,0,0,0,0,0,0,0,0,0,0,0,0,0,0,0,0,0,0,0,0,0,0],"sum_hessian":[5.7642065E3,5.566046E3,1.9816096E2,5.5226875E3,4.335844E1,7.334539E1,1.2481557E2,5.0689634E3,4.5372388E2,2.012994E1,2.3228498E1,5.4416664E1,1.8928728E1,1.1198053E2,1.2835044E1,3.7045457E3,1.3644177E3,3.9046902E2,6.3254856E1,3.3520746E0,1.9876423E1,1.06032E2,5.948527E0,3.688421E3,1.6124937E1,1.3296527E3,3.4764923E1,3.8414816E2,6.320845E0,3.0520412E1,3.2734444E1,3.6185608E3,6.9860085E1,6.734597E0,9.39034E0,8.584904E2,4.7116232E2,1.9314245E1,1.5450679E1,3.4693936E2,3.7208805E1,3.7813742E0,2.5394707E0,9.020845E0,2.1499567E1],"tree_param":{"num_deleted":"0","num_feature":"115","num_nodes":"45","size_leaf_vector":"0"}},{"base_weights":[4.4367552E-1,6.049666E-1,-5.64577E-1,6.7882764E-1,-2.4800809E-1,7.162866E-1,-1.2176815E-1,-5.1159406E-1,7.5062466E-1,7.327089E-1,8.318452E-3,-3.2381323E-1,7.4606574E-1,-3.9053196E-1,-5.668053E-1,7.3829275E-1,-5.499781E-1,-2.9447562E-1,7.695886E-1,5.331583E-1,-5.670846E-1,-2.7579987E-2,-5.6457144E-1,7.419366E-1,-5.294283E-1,5.8435306E-2,-6.0868955E-1,7.543339E-1,-5.257436E-1,-5.527085E-1,7.548596E-1],"categories":[],"categories_nodes":[],"categories_segments":[],"categories_sizes":[],"default_left":[1,1,0,1,1,1,1,1,0,1,1,1,0,1,0,1,0,1,0,1,0,1,0,0,0,0,0,0,0,0,0],"id":12,"left_children":[1,3,-1,5,7,9,11,13,-1,15,17,19,-1,21,-1,23,-1,25,-1,27,-1,29,-1,-1,-1,-1,-1,-1,-1,-1,-1],"loss_changes":[1.2816725E3,4.281421E2,0E0,1.8758081E2,1.4307402E2,6.943506E1,4.9390232E1,2.6492615E0,0E0,4.22146E1,3.1671406E1,4.7848564E1,0E0,8.684753E0,0E0,2.7242676E1,0E0,1.0938179E1,0E0,1.232741E1,0E0,1.919072E1,0E0,0E0,0E0,0E0,0E0,0E0,0E0,0E0,0E0],"parents":[2147483647,0,0,1,1,3,3,4,4,5,5,6,6,7,7,9,9,10,10,11,11,13,13,15,15,17,17,19,19,21,21],"right_children":[2,4,-1,6,8,10,12,14,-1,16,18,20,-1,22,-1,24,-1,26,-1,28,-1,30,-1,-1,-1,-1,-1,-1,-1,-1,-1],"split_conditions":[6.047047E-1,6.2973374E-1,-1.693731E-1,5.996833E-1,1.0848479E0,6.2602156E-1,2.530366E0,3.9970613E-1,2.251874E-1,1.5042711E0,2.380928E0,4.847291E-1,2.2381973E-1,5.0299823E-1,-1.7004159E-1,4.2705884E0,-1.6499344E-1,4.2667037E-1,2.3087658E-1,1.6733025E0,-1.701254E-1,4.2667037E-1,-1.6937144E-1,2.22581E-1,-1.588285E-1,1.7530592E-2,-1.8260688E-1,2.2630018E-1,-1.5772308E-1,-1.6581255E-1,2.264579E-1],"split_indices":[44,83,0,30,112,42,35,87,0,49,5,109,0,70,0,18,0,1,0,16,0,1,0,0,0,0,0,0,0,0,0],"split_type":[0,0,0,0,0,0,0,0,0,0,0,0,0,0,0,0,0,0,0,0,0,0,0,0,0,0,0,0,0,0,0],"sum_hessian":[7.8781914E3,6.7920596E3,1.0861321E3,6.250977E3,5.410826E2,5.971675E3,2.793023E2,4.284755E2,1.12607056E2,5.83626E3,1.354151E2,2.2706497E2,5.2237347E1,1.3673315E2,2.9174234E2,5.8113857E3,2.4873869E1,9.7319565E1,3.809553E1,4.994217E1,1.771228E2,4.4690815E1,9.204234E1,5.795143E3,1.6242548E1,4.6220646E1,5.1098915E1,4.155094E1,8.391227E0,2.6918365E1,1.7772451E1],"tree_param":{"num_deleted":"0","num_feature":"115","num_nodes":"31","size_leaf_vector":"0"}},{"base_weights":[1.3468683E-1,-1.694008E-1,6.6927785E-1,-3.4019607E-1,4.5739996E-1,6.8478143E-1,-5.449412E-1,-4.8926446E-1,3.481466E-1,6.862016E-1,1.6592264E-1,6.8858814E-1,-4.956595E-1,-5.2631813E-1,2.0928238E-1,5.82313E-1,-5.602828E-1,6.9764835E-1,-5.428002E-1,2.720831E-1,-5.525711E-1,7.0814544E-1,5.6018406E-1,-5.320139E-1,2.503948E0,3.114307E-2,9.7896975E-1,8.0913275E-1,3.6671174E-1,7.406383E-1,3.768028E-1,4.0128955E-1,-2.6949802E-1,7.148822E-1,5.0496286E-1,-3.8473792E-2,6.019876E-1,-5.457553E-1,3.8451353E-1,2.217584E-1,-4.3703496E-1,8.189105E-1,1.583949E0,8.3346844E-1,1.3429795E-1,-5.3303874E-1,4.37348E-1,1.2366958E-1,8.4236896E-1,4.483847E-1,-6.448828E-1,-3.8209113E-1,6.9233274E-1,6.965846E-1,7.497154E-1,-2.574136E-1,7.558351E-1,3.687744E-1,-5.352972E-1,6.384857E-1,4.2468626E-2],"categories":[],"categories_nodes":[],"categories_segments":[],"categories_sizes":[],"default_left":[1,1,1,1,1,1,0,1,1,1,1,1,0,1,1,1,0,1,0,1,0,1,1,1,0,1,1,1,1,0,1,1,1,1,1,1,1,0,0,0,0,0,0,0,0,0,0,0,0,0,0,0,0,0,0,0,0,0,0,0,0],"id":13,"left_children":[1,3,5,7,9,11,-1,13,15,17,19,21,-1,23,25,27,-1,29,-1,31,-1,33,35,37,-1,39,41,43,45,-1,47,49,51,53,55,57,59,-1,-1,-1,-1,-1,-1,-1,-1,-1,-1,-1,-1,-1,-1,-1,-1,-1,-1,-1,-1,-1,-1,-1,-1],"loss_changes":[1.0667866E3,4.4799805E2,4.5163086E1,3.3756055E2,5.9656143E1,1.09001465E1,0E0,7.007855E1,1.24960724E2,7.4377747E0,3.0313662E1,5.486206E0,0E0,4.5642944E1,1.873735E1,2.2507217E1,0E0,6.5841827E0,0E0,2.4264753E1,0E0,2.416504E0,7.89209E0,3.2493164E1,0E0,1.0108697E1,1.190815E0,3.6063995E0,1.5543377E1,0E0,7.064562E0,1.4041336E1,7.5304055E0,7.2802734E-1,1.3300924E1,4.540038E0,5.9761124E0,0E0,0E0,0E0,0E0,0E0,0E0,0E0,0E0,0E0,0E0,0E0,0E0,0E0,0E0,0E0,0E0,0E0,0E0,0E0,0E0,0E0,0E0,0E0,0E0],"parents":[2147483647,0,0,1,1,2,2,3,3,4,4,5,5,7,7,8,8,9,9,10,10,11,11,13,13,14,14,15,15,17,17,19,19,21,21,22,22,23,23,25,25,26,26,27,27,28,28,30,30,31,31,32,32,33,33,34,34,35,35,36,36],"right_children":[2,4,6,8,10,12,-1,14,16,18,20,22,-1,24,26,28,-1,30,-1,32,-1,34,36,38,-1,40,42,44,46,-1,48,50,52,54,56,58,60,-1,-1,-1,-1,-1,-1,-1,-1,-1,-1,-1,-1,-1,-1,-1,-1,-1,-1,-1,-1,-1,-1,-1,-1],"split_conditions":[6.047047E-1,6.2973374E-1,5.390351E0,4.847291E-1,4.2667037E-1,3.7154057E0,-1.6348237E-1,6.2602156E-1,1.0848479E0,3.3663967E0,1.0848479E0,6.629245E-1,-1.4869785E-1,3.390062E0,2.0116634E0,1.0538784E-1,-1.6808486E-1,9.762701E-1,-1.6284007E-1,1.1588979E0,-1.6577134E-1,1.1765964E0,1.0538784E-1,1.5042711E0,7.511844E-1,1.1588979E0,4.2667037E-1,2.9469528E0,5.0299823E-1,2.221915E-1,1.6733025E0,6.549889E0,9.762701E-1,3.9970613E-1,2.9469528E0,1.6483316E0,2.380928E0,-1.637266E-1,1.1535406E-1,6.652752E-2,-1.3111049E-1,2.4567315E-1,4.751847E-1,2.5004053E-1,4.0289387E-2,-1.5991163E-1,1.3120441E-1,3.7100874E-2,2.527107E-1,1.3451542E-1,-1.9346485E-1,-1.1462735E-1,2.0769984E-1,2.0897539E-1,2.2491463E-1,-7.722408E-2,2.2675054E-1,1.1063233E-1,-1.6058917E-1,1.9154572E-1,1.2740589E-2],"split_indices":[44,83,74,109,1,102,0,42,112,93,112,22,0,29,56,82,0,43,0,6,0,80,82,49,0,6,1,11,70,0,16,37,43,87,11,33,5,0,0,0,0,0,0,0,0,0,0,0,0,0,0,0,0,0,0,0,0,0,0,0,0],"split_type":[0,0,0,0,0,0,0,0,0,0,0,0,0,0,0,0,0,0,0,0,0,0,0,0,0,0,0,0,0,0,0,0,0,0,0,0,0,0,0,0,0,0,0,0,0,0,0,0,0,0,0,0,0,0,0,0,0,0,0,0,0],"sum_hessian":[6.5606187E3,4.1823086E3,2.3783098E3,3.2870786E3,8.952301E2,2.348756E3,2.9553732E1,2.7021802E3,5.8489844E2,5.0077856E2,3.944515E2,2.3416216E3,7.134641E0,2.5663E3,1.3588007E2,4.6531332E2,1.19585106E2,4.965858E2,4.192791E0,3.442138E2,5.0237713E1,2.0281915E3,3.1343005E2,2.5623083E3,3.9917548E0,1.1118699E2,2.469307E1,2.2541562E2,2.398977E2,4.3675656E2,5.98292E1,2.7812082E2,6.609299E1,1.9606648E3,6.7526726E1,2.0463078E1,2.9296698E2,2.524858E3,3.7450417E1,7.939018E1,3.1796806E1,2.1388052E1,3.3050172E0,2.1734279E2,8.072828E0,1.6986088E1,2.2291162E2,3.957661E1,2.0252586E1,2.666869E2,1.1433939E1,5.970642E1,6.386564E0,1.2992026E3,6.6146216E2,1.6712622E1,5.0814106E1,1.1386913E1,9.076164E0,2.7489413E2,1.8072834E1],"tree_param":{"num_deleted":"0","num_feature":"115","num_nodes":"61","size_leaf_vector":"0"}},{"base_weights":[-4.4395125E-1,-5.392295E-1,-1.782415E-1,-5.581745E-1,-3.6406928E-1,-4.7303054E-1,1.0218275E-1,-5.624904E-1,-4.9102643E-1,-4.5670572E-1,1.6681609E-1,-3.440714E-1,-5.6331027E-1,2.3619616E-1,-5.606093E-1,-5.3130895E-1,2.6385307E-1,-2.7800167E-1,-5.6364095E-1,6.351271E-1,-3.809279E-1,-5.176709E-1,-1.5938814E-1,5.617628E-2,6.286968E-1,-5.619786E-1,-4.3540534E-1,-4.6631566E-1,9.372068E-1,-5.585553E-1,-3.4228045E-2,-4.838962E-1,9.236082E-1,-5.4241043E-1,7.532596E-1,-5.5958945E-1,5.665463E-1,-3.3946335E-1,3.8784975E-1,-2.1888489E-1,2.5731987E-1,6.902702E-1,-1.118947E-1,2.3370473E-2,-5.5178225E-1,2.1652617E-1,-5.439234E-1,-2.9616848E-1,-5.695394E-1,-5.6410414E-1,7.671333E-1,-4.1576967E-1,7.6401687E-1,4.0603253E-1,-5.551957E-1,7.393799E-1,3.656956E-1,-5.3117156E-1,9.027992E-1],"categories":[],"categories_nodes":[],"categories_segments":[],"categories_sizes":[],"default_left":[1,1,1,1,1,1,1,0,1,1,1,1,0,1,0,1,1,1,0,1,1,1,1,1,1,0,1,0,0,0,1,0,0,0,0,0,0,1,1,1,1,1,1,0,0,0,0,0,0,0,0,0,0,0,0,0,0,0,0],"id":14,"left_children":[1,3,5,7,9,11,13,-1,15,17,19,21,-1,23,-1,25,27,29,-1,31,33,35,37,39,41,-1,43,-1,-1,-1,45,-1,-1,-1,-1,-1,-1,47,49,51,53,55,57,-1,-1,-1,-1,-1,-1,-1,-1,-1,-1,-1,-1,-1,-1,-1,-1],"loss_changes":[1.2090033E2,1.1469055E1,1.0445146E2,6.430664E-1,1.7101208E1,6.976532E0,5.769575E1,0E0,6.2052345E0,5.4810257E0,1.3622936E1,8.130932E0,0E0,3.810399E1,0E0,3.1322098E-1,5.7333846E0,7.669429E0,0E0,9.646022E0,4.9266243E0,6.2984886E0,1.2506163E1,2.0590794E1,7.812271E0,0E0,2.703844E0,0E0,0E0,0E0,7.941937E0,0E0,0E0,0E0,0E0,0E0,0E0,7.777853E-1,1.1826878E1,3.0759933E1,2.6184753E1,2.2280731E0,6.3849425E0,0E0,0E0,0E0,0E0,0E0,0E0,0E0,0E0,0E0,0E0,0E0,0E0,0E0,0E0,0E0,0E0],"parents":[2147483647,0,0,1,1,2,2,3,3,4,4,5,5,6,6,8,8,9,9,10,10,11,11,13,13,15,15,16,16,17,17,19,19,20,20,21,21,22,22,23,23,24,24,26,26,30,30,37,37,38,38,39,39,40,40,41,41,42,42],"right_children":[2,4,6,8,10,12,14,-1,16,18,20,22,-1,24,-1,26,28,30,-1,32,34,36,38,40,42,-1,44,-1,-1,-1,46,-1,-1,-1,-1,-1,-1,48,50,52,54,56,58,-1,-1,-1,-1,-1,-1,-1,-1,-1,-1,-1,-1,-1,-1,-1,-1],"split_conditions":[6.658902E-1,9.762701E-1,6.629245E-1,1.4745897E0,1.0179198E0,6.047047E-1,9.0977633E-1,-1.6874713E-1,1.0657148E0,9.972777E-1,6.2602156E-1,5.996833E-1,-1.6899309E-1,1.5042711E0,-1.6818279E-1,1.0179198E0,4.2667037E-1,6.2973374E-1,-1.690923E-1,1.0657148E0,1.6483316E0,6.2602156E-1,9.762701E-1,6.2602156E-1,6.047047E-1,-1.6859359E-1,5.996833E-1,-1.3989471E-1,2.8116205E-1,-1.675666E-1,1.0657148E0,-1.4516887E-1,2.7708247E-1,-1.6272314E-1,2.2597788E-1,-1.6787684E-1,1.699639E-1,6.2973374E-1,6.1135554E-1,1.6483316E0,9.762701E-1,4.847291E-1,1.1765964E0,7.011142E-3,-1.6553468E-1,6.495785E-2,-1.6317701E-1,-8.885054E-2,-1.7086184E-1,-1.6923125E-1,2.3014E-1,-1.2473091E-1,2.2920507E-1,1.21809766E-1,-1.6655871E-1,2.2181398E-1,1.0970868E-1,-1.5935147E-1,2.7083978E-1],"split_indices":[67,43,22,59,64,44,72,0,76,21,42,30,0,49,0,64,1,83,0,76,33,42,43,42,44,0,30,0,0,0,76,0,0,0,0,0,0,83,40,33,43,109,80,0,0,0,0,0,0,0,0,0,0,0,0,0,0,0,0],"split_type":[0,0,0,0,0,0,0,0,0,0,0,0,0,0,0,0,0,0,0,0,0,0,0,0,0,0,0,0,0,0,0,0,0,0,0,0,0,0,0,0,0,0,0,0,0,0,0,0,0,0,0,0,0,0,0,0,0,0,0],"sum_hessian":[4.7783804E3,3.516429E3,1.2619513E3,3.1712466E3,3.451824E2,6.148835E2,6.470678E2,2.9727942E3,1.9845247E2,2.9401773E2,5.1164677E1,2.5518224E2,3.5970126E2,5.387739E2,1.0829389E2,1.8868011E2,9.772344E0,1.1141951E2,1.8259822E2,2.7496307E1,2.366837E1,1.3060883E2,1.245734E2,3.701488E2,1.686251E2,1.3927927E2,4.9400856E1,4.8358917E0,4.9364524E0,5.120152E1,6.0217987E1,5.496784E0,2.1999523E1,2.1175257E1,2.4931126E0,1.26213E2,4.395829E0,9.401598E1,3.0557415E1,1.5630948E2,2.1383932E2,1.5574434E2,1.2880768E1,1.0157521E1,3.9243332E1,4.0746944E1,1.9471043E1,8.105131E1,1.2964675E1,8.567296E0,2.1990118E1,1.3070499E2,2.5604483E1,1.811789E2,3.2660435E1,1.3416634E2,2.1578005E1,9.451768E0,3.4290001E0],"tree_param":{"num_deleted":"0","num_feature":"115","num_nodes":"59","size_leaf_vector":"0"}},{"base_weights":[-4.830794E-1,-5.145283E-1,3.2733828E-1,-5.203069E-1,1.4176095E-1,-1.7015073E-1,6.016153E-1,-5.4475623E-1,-4.6098995E-1,-5.471143E-1,6.4745414E-1,-5.5803466E-1,7.643733E-1,7.157651E-1,-5.136515E-1,-5.549898E-1,-3.8557482E-1,-4.1846222E-1,-5.6205314E-1,-4.2941663E-1,8.379055E-1,7.803093E-1,-4.764894E-1,-5.566352E-1,-2.1750489E-1,-5.104537E-1,-1.9719709E-2,-3.2867876E-1,-5.378603E-1,-5.5997753E-1,-3.8537017E-1,2.0750427E-1,-5.445338E-1,-5.422461E-1,-1.6043687E-1,-1.8036646E-1,2.3624415E0,-3.73814E-1,6.690687E-2,-4.8281547E-1,-5.6969017E-1],"categories":[],"categories_nodes":[],"categories_segments":[],"categories_sizes":[],"default_left":[1,1,1,1,1,1,1,1,1,0,1,0,0,1,0,1,1,1,0,0,0,0,0,1,1,1,1,1,1,0,0,0,0,0,0,0,0,0,0,0,0],"id":15,"left_children":[1,3,5,7,9,11,13,15,17,-1,19,-1,-1,21,-1,23,25,27,-1,-1,-1,-1,-1,29,31,33,35,37,39,-1,-1,-1,-1,-1,-1,-1,-1,-1,-1,-1,-1],"loss_changes":[1.19285034E2,1.7137817E1,2.4008562E1,6.2176514E0,1.430888E1,2.3279222E1,1.4773415E1,4.922241E0,5.3882446E0,0E0,5.191452E0,0E0,0E0,8.303257E0,0E0,1.5228882E0,8.841272E0,9.736984E0,0E0,0E0,0E0,0E0,0E0,1.4701538E0,2.3373992E0,1.5198174E0,1.9690908E1,9.495773E0,4.1765594E-1,0E0,0E0,0E0,0E0,0E0,0E0,0E0,0E0,0E0,0E0,0E0,0E0],"parents":[2147483647,0,0,1,1,2,2,3,3,4,4,5,5,6,6,7,7,8,8,10,10,13,13,15,15,16,16,17,17,23,23,24,24,25,25,26,26,27,27,28,28],"right_children":[2,4,6,8,10,12,14,16,18,-1,20,-1,-1,22,-1,24,26,28,-1,-1,-1,-1,-1,30,32,34,36,38,40,-1,-1,-1,-1,-1,-1,-1,-1,-1,-1,-1,-1],"split_conditions":[3.1106684E0,6.549889E0,6.2602156E-1,5.0299823E-1,1.0657148E0,2.380928E0,1.6733025E0,1.5042711E0,9.0977633E-1,-1.641343E-1,6.2973374E-1,-1.674104E-1,2.29312E-1,1.2555322E1,-1.5409546E-1,3.6749296E0,1.0657148E0,6.2602156E-1,-1.6861595E-1,-1.28825E-1,2.5137168E-1,2.340928E-1,-1.4294682E-1,3.3663967E0,2.0116634E0,1.9198021E0,2.0116634E0,1.1765964E0,4.847291E-1,-1.6799326E-1,-1.15611054E-1,6.2251285E-2,-1.6336015E-1,-1.6267383E-1,-4.8131064E-2,-5.410994E-2,7.087325E-1,-1.121442E-1,2.0072062E-2,-1.4484465E-1,-1.7090705E-1],"split_indices":[75,37,42,70,76,5,16,49,72,0,83,0,0,41,0,57,76,42,0,0,0,0,0,93,56,39,56,80,109,0,0,0,0,0,0,0,0,0,0,0,0],"split_type":[0,0,0,0,0,0,0,0,0,0,0,0,0,0,0,0,0,0,0,0,0,0,0,0,0,0,0,0,0,0,0,0,0,0,0,0,0,0,0,0,0],"sum_hessian":[4.672675E3,4.498473E3,1.742014E2,4.459415E3,3.9058178E1,6.2044155E1,1.1215724E2,3.1520264E3,1.3073885E3,1.649971E1,2.2558466E1,4.4130287E1,1.7913866E1,1.02068535E2,1.0088709E1,2.9592903E3,1.9273622E2,9.237938E2,3.8359476E2,3.2014956E0,1.9356972E1,9.715447E1,4.914061E0,2.9442861E3,1.5004044E1,1.4339526E2,4.9340954E1,5.2943134E2,3.943625E2,2.8857007E3,5.8585358E1,6.683545E0,8.320498E0,1.309516E2,1.244366E1,4.7089634E1,2.2513177E0,4.7526047E2,5.417088E1,1.5041388E2,2.4394861E2],"tree_param":{"num_deleted":"0","num_feature":"115","num_nodes":"41","size_leaf_vector":"0"}},{"base_weights":[3.958895E-1,5.3593194E-1,-5.4801977E-1,6.0022354E-1,-2.3971416E-1,6.327634E-1,-1.1789843E-1,-4.9180746E-1,6.667942E-1,6.541216E-1,1.0776705E-1,-3.078775E-1,6.628699E-1,-3.6670452E-1,-5.50774E-1,6.5934277E-1,-5.2980405E-1,-6.855486E-1,4.110961E-1,4.6965852E-1,-5.497303E-1,-1.2640777E-2,-5.478995E-1,6.612577E-1,-1.1103979E0,-8.420361E-1,-5.620657E-1,6.76929E-1,8.928843E-2,6.7628884E-1,-5.072548E-1,-5.350479E-1,6.8878347E-1],"categories":[],"categories_nodes":[],"categories_segments":[],"categories_sizes":[],"default_left":[1,1,0,1,1,1,1,1,0,1,1,1,0,1,0,1,0,1,1,1,0,1,0,0,0,0,0,0,0,0,0,0,0],"id":16,"left_children":[1,3,-1,5,7,9,11,13,-1,15,17,19,-1,21,-1,23,-1,25,27,29,-1,31,-1,-1,-1,-1,-1,-1,-1,-1,-1,-1,-1],"loss_changes":[8.7965344E2,2.8904736E2,0E0,1.25097046E2,1.01829865E2,5.7322754E1,3.4730343E1,2.3658829E0,0E0,3.075122E1,4.8719326E1,3.5591972E1,0E0,7.339035E0,0E0,1.7329834E1,0E0,6.0982513E-1,1.2449844E1,9.450613E0,0E0,1.4947046E1,0E0,0E0,0E0,0E0,0E0,0E0,0E0,0E0,0E0,0E0,0E0],"parents":[2147483647,0,0,1,1,3,3,4,4,5,5,6,6,7,7,9,9,10,10,11,11,13,13,15,15,17,17,18,18,19,19,21,21],"right_children":[2,4,-1,6,8,10,12,14,-1,16,18,20,-1,22,-1,24,-1,26,28,30,-1,32,-1,-1,-1,-1,-1,-1,-1,-1,-1,-1,-1],"split_conditions":[6.047047E-1,6.2973374E-1,-1.6440594E-1,5.996833E-1,1.0848479E0,9.762701E-1,2.530366E0,3.9970613E-1,2.0003827E-1,1.5042711E0,1.0538784E-1,4.847291E-1,1.9886097E-1,5.0299823E-1,-1.652322E-1,1.6483316E0,-1.5894122E-1,9.972777E-1,4.2667037E-1,1.6733025E0,-1.649191E-1,4.2667037E-1,-1.6436985E-1,1.9837731E-1,-3.331194E-1,-2.5261086E-1,-1.6861972E-1,2.030787E-1,2.678653E-2,2.0288666E-1,-1.5217644E-1,-1.6051437E-1,2.0663504E-1],"split_indices":[44,83,0,30,112,43,35,87,0,49,82,109,0,70,0,33,0,21,1,16,0,1,0,0,0,0,0,0,0,0,0,0,0],"split_type":[0,0,0,0,0,0,0,0,0,0,0,0,0,0,0,0,0,0,0,0,0,0,0,0,0,0,0,0,0,0,0,0,0],"sum_hessian":[6.651373E3,5.7924175E3,8.589559E2,5.3492554E3,4.4316177E2,5.1174883E3,2.3176707E2,3.4709476E2,9.606703E1,4.9171987E3,2.0028976E2,1.8689648E2,4.487059E1,1.135041E2,2.3359065E2,4.89605E3,2.1148964E1,5.5051086E1,1.4523868E2,4.411823E1,1.4277826E2,3.878537E1,7.471873E1,4.8913833E3,4.666253E0,2.171413E1,3.3336956E1,7.893226E1,6.630642E1,3.66698E1,7.448427E0,2.2365316E1,1.6420053E1],"tree_param":{"num_deleted":"0","num_feature":"115","num_nodes":"33","size_leaf_vector":"0"}},{"base_weights":[1.2239547E-1,-1.501664E-1,5.8050424E-1,-3.126959E-1,3.9147574E-1,5.931498E-1,-5.237033E-1,-4.6123806E-1,3.0671728E-1,5.7784563E-1,1.2278273E-1,5.962578E-1,-4.6453032E-1,-5.023143E-1,1.7654292E-1,4.947773E-1,-5.420995E-1,6.074415E-1,1.838111E-2,2.362041E-2,7.327885E-1,6.170492E-1,4.652054E-1,-5.3488785E-1,-1.1882892E-2,-6.625557E-2,6.0130394E-1,6.818417E-1,2.4673696E-1,6.532606E-1,2.5448185E-1,7.8658944E-1,-2.6546177E-1,1.1471821E-1,-5.333518E-1,6.23769E-1,4.190891E-1,3.5552457E-1,7.086503E-1,-5.4489636E-1,7.1531224E-1,-5.405208E-1,5.140866E-1,-2.0933427E-1,1.0607185E0,8.17675E-1,-4.8296896E-1,5.7918453E-1,1.0323973E0,3.115034E-1,-6.720709E-1,6.672264E-1,-5.4030466E-1,-1.9724248E-2,7.333068E-1,-1.3907652E-1,-4.7583392E-1,-2.4765448E-1,2.6082245E-1,6.2880766E-1,4.8067585E-1,6.869867E-1,-2.2557673E-1,1.6364378E-1,5.251543E-1],"categories":[],"categories_nodes":[],"categories_segments":[],"categories_sizes":[],"default_left":[1,1,1,1,1,1,0,1,1,1,1,1,0,1,1,1,0,1,1,1,0,1,1,1,1,1,1,1,1,1,1,0,1,1,0,1,1,1,0,0,0,0,0,0,0,0,0,0,0,0,0,0,0,0,0,0,0,0,0,0,0,0,0,0,0],"id":17,"left_children":[1,3,5,7,9,11,-1,13,15,17,19,21,-1,23,25,27,-1,29,31,33,-1,35,37,39,41,43,45,47,49,51,53,-1,55,57,-1,59,61,63,-1,-1,-1,-1,-1,-1,-1,-1,-1,-1,-1,-1,-1,-1,-1,-1,-1,-1,-1,-1,-1,-1,-1,-1,-1,-1,-1],"loss_changes":[6.944957E2,3.0714615E2,2.9281067E1,2.4701886E2,4.0261322E1,7.0217285E0,0E0,5.67959E1,8.321081E1,7.8586273E0,2.0012371E1,5.288269E0,0E0,3.2484924E1,1.3623785E1,1.95924E1,0E0,7.1335754E0,5.64066E0,1.4565334E1,0E0,2.0836792E0,7.3375473E0,2.4253662E1,3.5783253E1,1.3881129E1,1.1657232E1,8.118629E0,1.1198419E1,7.00943E0,7.0389695E0,0E0,4.3733644E-1,1.31152725E1,0E0,9.256592E-1,1.067701E1,6.357401E0,0E0,0E0,0E0,0E0,0E0,0E0,0E0,0E0,0E0,0E0,0E0,0E0,0E0,0E0,0E0,0E0,0E0,0E0,0E0,0E0,0E0,0E0,0E0,0E0,0E0,0E0,0E0],"parents":[2147483647,0,0,1,1,2,2,3,3,4,4,5,5,7,7,8,8,9,9,10,10,11,11,13,13,14,14,15,15,17,17,18,18,19,19,21,21,22,22,23,23,24,24,25,25,26,26,27,27,28,28,29,29,30,30,32,32,33,33,35,35,36,36,37,37],"right_children":[2,4,6,8,10,12,-1,14,16,18,20,22,-1,24,26,28,-1,30,32,34,-1,36,38,40,42,44,46,48,50,52,54,-1,56,58,-1,60,62,64,-1,-1,-1,-1,-1,-1,-1,-1,-1,-1,-1,-1,-1,-1,-1,-1,-1,-1,-1,-1,-1,-1,-1,-1,-1,-1,-1],"split_conditions":[6.047047E-1,6.2973374E-1,5.390351E0,4.847291E-1,6.1135554E-1,3.7154057E0,-1.5711099E-1,6.2602156E-1,1.0848479E0,6.629245E-1,3.6749296E0,6.629245E-1,-1.393591E-1,6.658902E-1,9.762701E-1,1.198877E0,-1.6262984E-1,9.762701E-1,1.1588979E0,1.0848479E0,2.1983656E-1,1.1765964E0,9.972777E-1,1.5042711E0,4.2667037E-1,1.9198021E0,1.1588979E0,5.0299823E-1,1.4745897E0,3.3663967E0,1.6733025E0,2.3597685E-1,6.2602156E-1,3.9970613E-1,-1.6000554E-1,3.1106684E0,1.1588979E0,5.996833E-1,2.1259509E-1,-1.6346891E-1,2.1459368E-1,-1.6215624E-1,1.5422599E-1,-6.280028E-2,3.1821558E-1,2.4530251E-1,-1.448907E-1,1.7375536E-1,3.097192E-1,9.345102E-2,-2.0162128E-1,2.0016792E-1,-1.620914E-1,-5.917275E-3,2.1999206E-1,-4.1722957E-2,-1.4275019E-1,-7.429635E-2,7.8246735E-2,1.8864231E-1,1.4420275E-1,2.0609601E-1,-6.767302E-2,4.9093135E-2,1.575463E-1],"split_indices":[44,83,74,109,40,102,0,42,112,22,57,22,0,67,43,111,0,43,6,112,0,80,21,49,1,39,6,70,59,93,16,0,42,87,0,75,6,30,0,0,0,0,0,0,0,0,0,0,0,0,0,0,0,0,0,0,0,0,0,0,0,0,0,0,0],"split_type":[0,0,0,0,0,0,0,0,0,0,0,0,0,0,0,0,0,0,0,0,0,0,0,0,0,0,0,0,0,0,0,0,0,0,0,0,0,0,0,0,0,0,0,0,0,0,0,0,0,0,0,0,0,0,0,0,0,0,0,0,0,0,0,0,0],"sum_hessian":[5.5603643E3,3.4866047E3,2.0737598E3,2.6821882E3,8.044163E2,2.0507373E3,2.3022486E1,2.1635906E3,5.1859766E2,4.7429025E2,3.3012607E2,2.0451637E3,5.5735126E0,2.0328757E3,1.3071501E2,4.248802E2,9.371744E1,4.5037927E2,2.391098E1,2.8485834E2,4.5267742E1,1.7619263E3,2.832374E2,1.9061803E3,1.26695404E2,8.370961E1,4.70054E1,2.4121461E2,1.8366559E2,3.978783E2,5.2500996E1,5.9732976E0,1.7937681E1,2.4549883E2,3.93595E1,1.7020011E3,5.9925148E1,1.9696008E2,8.627733E1,1.8916012E3,1.45791025E1,6.3173622E1,6.3521786E1,7.500177E1,8.707844E0,3.9390705E1,7.6146984E0,1.8862857E2,5.258604E1,1.7218901E2,1.1476575E1,3.937125E2,4.1657968E0,3.3993137E1,1.850786E1,1.2243346E1,5.694336E0,7.034117E1,1.7515764E2,1.6408286E3,6.1172474E1,4.228679E1,1.7638361E1,9.3340454E1,1.0361963E2],"tree_param":{"num_deleted":"0","num_feature":"115","num_nodes":"65","size_leaf_vector":"0"}},{"base_weights":[-4.1489726E-1,-5.334966E-1,-1.7852286E-1,-5.475048E-1,-3.9969704E-1,-6.587246E-2,-5.4543513E-1,-2.1416889E-1,-5.063629E-1,-3.8107166E-1,1.7746395E-1,-5.3986627E-1,1.0549729E-2,-5.4524136E-1,-1.2309057E-1,-1.6851766E-1,-4.8505485E-1,2.8177794E-2,5.36453E-1,2.1519676E-1,-5.2206844E-1,-4.967458E-1,5.48697E-1,-3.3157215E-1,1.7674401E-1,-2.3445562E-1,-5.463094E-1,1.0892631E-1,-5.4475296E-1,6.2876093E-1,1.3839817E-3,6.483444E-1,-2.8754744E-1,-5.199232E-1,-2.771027E-1,-3.0055732E-1,6.598086E-1,-5.362849E-1,5.927875E-1,2.3225582E-1,-3.049363E-1,7.0708156E-1,5.343039E-1,7.008326E-1,-5.254688E-1],"categories":[],"categories_nodes":[],"categories_segments":[],"categories_sizes":[],"default_left":[1,1,1,0,1,1,0,1,1,1,1,0,1,0,1,1,1,1,1,1,0,0,0,1,1,1,0,1,0,1,1,0,0,0,0,0,0,0,0,0,0,0,0,0,0],"id":18,"left_children":[1,3,5,-1,7,9,-1,11,13,15,17,-1,19,-1,21,23,25,27,29,31,-1,-1,-1,33,35,37,-1,39,-1,41,43,-1,-1,-1,-1,-1,-1,-1,-1,-1,-1,-1,-1,-1,-1],"loss_changes":[1.08220215E2,4.602539E0,5.3382874E1,0E0,4.789276E0,7.5996605E1,0E0,6.7450423E0,2.263565E0,9.457718E0,2.9961348E1,0E0,6.1582007E0,0E0,4.212627E0,8.126855E0,4.31266E0,1.8384901E1,8.110657E0,9.066553E0,0E0,0E0,0E0,8.5819244E-1,1.0948445E1,1.4943247E1,0E0,1.7834074E1,0E0,6.5839386E-1,9.642077E0,0E0,0E0,0E0,0E0,0E0,0E0,0E0,0E0,0E0,0E0,0E0,0E0,0E0,0E0],"parents":[2147483647,0,0,1,1,2,2,4,4,5,5,7,7,8,8,9,9,10,10,12,12,14,14,15,15,16,16,17,17,18,18,19,19,23,23,24,24,25,25,27,27,29,29,30,30],"right_children":[2,4,6,-1,8,10,-1,12,14,16,18,-1,20,-1,22,24,26,28,30,32,-1,-1,-1,34,36,38,-1,40,-1,42,44,-1,-1,-1,-1,-1,-1,-1,-1,-1,-1,-1,-1,-1,-1],"split_conditions":[5.0299823E-1,9.762701E-1,9.0977633E-1,-1.6425145E-1,9.972777E-1,6.629245E-1,-1.6363055E-1,6.2973374E-1,3.7154057E0,6.047047E-1,1.1588979E0,-1.6195989E-1,1.0657148E0,-1.6357242E-1,4.2667037E-1,6.1135554E-1,6.658902E-1,9.972777E-1,6.047047E-1,6.047047E-1,-1.5662053E-1,-1.4902374E-1,1.646091E-1,5.996833E-1,9.762701E-1,9.762701E-1,-1.6389284E-1,3.050579E-1,-1.634259E-1,3.050579E-1,3.9970613E-1,1.9450332E-1,-8.626424E-2,-1.5597697E-1,-8.3130814E-2,-9.0167195E-2,1.9794258E-1,-1.6088548E-1,1.7783625E-1,6.967675E-2,-9.148089E-2,2.1212448E-1,1.6029118E-1,2.102498E-1,-1.5764065E-1],"split_indices":[70,43,72,0,21,22,0,83,102,44,6,0,76,0,1,40,67,21,44,44,0,0,0,30,43,43,0,88,0,88,87,0,0,0,0,0,0,0,0,0,0,0,0,0,0],"split_type":[0,0,0,0,0,0,0,0,0,0,0,0,0,0,0,0,0,0,0,0,0,0,0,0,0,0,0,0,0,0,0,0,0,0,0,0,0,0,0,0,0,0,0,0,0],"sum_hessian":[3.8627383E3,2.5713315E3,1.2914067E3,2.3248408E3,2.4649069E2,9.889548E2,3.0245203E2,9.1079834E1,1.5541086E2,4.306099E2,5.5834485E2,3.6612648E1,5.446719E1,1.4071446E2,1.4696405E1,1.4231723E2,2.8829266E2,3.951144E2,1.6323044E2,3.977895E1,1.4688238E1,9.611147E0,5.0852585E0,9.6692535E1,4.56247E1,5.75749E1,2.3071777E2,3.4701605E2,4.809836E1,1.390645E2,2.416594E1,2.1212961E1,1.8565989E1,1.977317E1,7.6919365E1,2.3139286E1,2.248541E1,4.2441387E1,1.5133513E1,2.6768558E2,7.933048E1,7.248041E1,6.658409E1,1.02404785E1,1.3925461E1],"tree_param":{"num_deleted":"0","num_feature":"115","num_nodes":"45","size_leaf_vector":"0"}},{"base_weights":[-4.5620254E-1,-4.877791E-1,3.0951422E-1,-4.9361008E-1,1.11989126E-1,-1.4693399E-1,5.5263865E-1,-5.2309406E-1,-4.252327E-1,-5.277745E-1,5.4577947E-1,-5.3864163E-1,6.8422985E-1,6.494511E-1,-4.859223E-1,-5.358917E-1,-3.3549544E-1,-3.784438E-1,-5.449979E-1,-4.137189E-1,7.1652573E-1,7.060364E-1,-4.4565222E-1,-5.400282E-1,-3.368219E-1,-4.7902623E-1,2.8783156E-2,-2.8403702E-1,-5.1231164E-1,9.3515015E-1,6.669701E-1,-5.421121E-1,-1.877767E-1,-5.4337204E-1,1.4641236E0,-5.1799697E-1,-9.1127604E-2,-5.3971595E-1,5.976233E-1,-1.61331E-1,-4.3796104E-1,-4.489349E-1,-5.509974E-1],"categories":[],"categories_nodes":[],"categories_segments":[],"categories_sizes":[],"default_left":[1,1,1,1,1,1,1,1,1,0,1,0,0,1,0,1,1,1,0,0,0,1,0,1,1,1,1,1,1,0,0,0,0,0,0,0,0,0,0,0,0,0,0],"id":19,"left_children":[1,3,5,7,9,11,13,15,17,-1,19,-1,-1,21,-1,23,25,27,-1,-1,-1,29,-1,31,33,35,37,39,41,-1,-1,-1,-1,-1,-1,-1,-1,-1,-1,-1,-1,-1,-1],"loss_changes":[9.0846375E1,1.26553955E1,1.663523E1,6.9714966E0,1.0141564E1,1.7504019E1,1.0122709E1,5.7957153E0,5.8481445E0,0E0,3.8434153E0,0E0,0E0,5.8699646E0,0E0,1.7354126E0,8.46422E0,9.714516E0,0E0,0E0,0E0,1.4274597E-1,0E0,1.5712891E0,1.9414715E1,1.7062817E0,1.5400465E1,8.613239E0,5.4067993E-1,0E0,0E0,0E0,0E0,0E0,0E0,0E0,0E0,0E0,0E0,0E0,0E0,0E0,0E0],"parents":[2147483647,0,0,1,1,2,2,3,3,4,4,5,5,6,6,7,7,8,8,10,10,13,13,15,15,16,16,17,17,21,21,23,23,24,24,25,25,26,26,27,27,28,28],"right_children":[2,4,6,8,10,12,14,16,18,-1,20,-1,-1,22,-1,24,26,28,-1,-1,-1,30,-1,32,34,36,38,40,42,-1,-1,-1,-1,-1,-1,-1,-1,-1,-1,-1,-1,-1,-1],"split_conditions":[3.1106684E0,6.549889E0,6.2602156E-1,5.0299823E-1,1.0657148E0,2.380928E0,1.6733025E0,1.5042711E0,9.0977633E-1,-1.5833236E-1,6.2973374E-1,-1.615925E-1,2.0526896E-1,1.2555322E1,-1.457767E-1,3.3663967E0,1.0657148E0,6.2602156E-1,-1.6349937E-1,-1.24115676E-1,2.1495773E-1,3.9970613E-1,-1.3369568E-1,3.6749296E0,2.0292308E0,1.9198021E0,6.2602156E-1,6.2973374E-1,4.847291E-1,2.8054506E-1,2.0009103E-1,-1.6263364E-1,-5.6333013E-2,-1.6301161E-1,4.392371E-1,-1.553991E-1,-2.7338283E-2,-1.619148E-1,1.7928699E-1,-4.8399303E-2,-1.3138832E-1,-1.3468048E-1,-1.6529922E-1],"split_indices":[75,37,42,70,76,5,16,49,72,0,83,0,0,41,0,93,76,42,0,0,0,87,0,57,7,39,42,83,109,0,0,0,0,0,0,0,0,0,0,0,0,0,0],"split_type":[0,0,0,0,0,0,0,0,0,0,0,0,0,0,0,0,0,0,0,0,0,0,0,0,0,0,0,0,0,0,0,0,0,0,0,0,0,0,0,0,0,0,0],"sum_hessian":[3.7500437E3,3.6018728E3,1.4817072E2,3.5673677E3,3.4505188E1,5.163168E1,9.653904E1,2.487934E3,1.0794335E3,1.3854946E1,2.065024E1,3.5332336E1,1.6299343E1,8.864994E1,7.889099E0,2.3273123E3,1.6062193E2,7.79187E2,3.0024655E2,2.9046621E0,1.7745579E1,8.463217E1,4.017768E0,2.2782588E3,4.9053432E1,1.14996666E2,4.5625275E1,4.5877185E2,3.2041513E2,8.987184E0,7.564499E1,2.2643242E3,1.3934517E1,4.463279E1,4.420641E0,1.0419336E2,1.0803306E1,2.2845083E1,2.278019E1,2.5641202E2,2.0235985E2,1.2622776E2,1.9418736E2],"tree_param":{"num_deleted":"0","num_feature":"115","num_nodes":"43","size_leaf_vector":"0"}},{"base_weights":[3.6140463E-1,4.8834074E-1,-5.3593296E-1,5.468263E-1,-2.3600735E-1,5.7707745E-1,-1.2474619E-1,-4.781317E-1,6.1313206E-1,5.945451E-1,-5.0881762E-2,-3.0358022E-1,6.0721564E-1,-3.535197E-1,-5.380789E-1,6.172748E-1,3.5285157E-1,-2.7583766E-1,6.2014997E-1,4.3668404E-1,-5.3764325E-1,-2.0322233E-2,-5.338759E-1,6.2009627E-1,-7.8106123E-1,1.0662773E-2,6.2577945E-1,9.838219E-2,-5.959091E-1,6.1831564E-1,-4.7376457E-1,-5.2052695E-1,6.231455E-1],"categories":[],"categories_nodes":[],"categories_segments":[],"categories_sizes":[],"default_left":[1,1,0,1,1,1,1,1,0,1,1,1,0,1,0,1,1,1,0,1,0,1,0,0,0,0,0,0,0,0,0,0,0],"id":20,"left_children":[1,3,-1,5,7,9,11,13,-1,15,17,19,-1,21,-1,23,25,27,-1,29,-1,31,-1,-1,-1,-1,-1,-1,-1,-1,-1,-1,-1],"loss_changes":[6.208405E2,2.0235596E2,0E0,8.981189E1,7.3759674E1,4.639624E1,2.521517E1,1.891037E0,0E0,2.2375854E1,1.7578884E1,2.6977383E1,0E0,5.60266E0,0E0,1.5310059E1,3.3228123E1,1.0486252E1,0E0,6.515575E0,0E0,1.12179365E1,0E0,0E0,0E0,0E0,0E0,0E0,0E0,0E0,0E0,0E0,0E0],"parents":[2147483647,0,0,1,1,3,3,4,4,5,5,6,6,7,7,9,9,10,10,11,11,13,13,15,15,16,16,17,17,19,19,21,21],"right_children":[2,4,-1,6,8,10,12,14,-1,16,18,20,-1,22,-1,24,26,28,-1,30,-1,32,-1,-1,-1,-1,-1,-1,-1,-1,-1,-1,-1],"split_conditions":[6.047047E-1,6.2973374E-1,-1.607799E-1,5.996833E-1,1.0848479E0,6.2602156E-1,2.530366E0,3.9970613E-1,1.8393962E-1,6.658902E-1,2.380928E0,4.847291E-1,1.821647E-1,5.0299823E-1,-1.6142368E-1,1.6483316E0,1.0848479E0,4.2667037E-1,1.8604499E-1,1.6733025E0,-1.6129299E-1,4.2667037E-1,-1.6016278E-1,1.8602888E-1,-2.3431838E-1,3.198832E-3,1.8773384E-1,2.9514657E-2,-1.7877275E-1,1.8549469E-1,-1.4212938E-1,-1.5615809E-1,1.8694367E-1],"split_indices":[44,83,0,30,112,42,35,87,0,67,5,109,0,70,0,33,112,1,0,16,0,1,0,0,0,0,0,0,0,0,0,0,0],"split_type":[0,0,0,0,0,0,0,0,0,0,0,0,0,0,0,0,0,0,0,0,0,0,0,0,0,0,0,0,0,0,0,0,0],"sum_hessian":[5.4472344E3,4.772569E3,6.7466516E2,4.416237E3,3.5633203E2,4.2260156E3,1.9022147E2,2.7761078E2,7.872126E1,4.111696E3,1.1431985E2,1.5334198E2,3.6879494E1,9.241181E1,1.8519896E2,3.7568357E3,3.5486014E2,8.605859E1,2.826125E1,3.6629444E1,1.1671253E2,3.28451E1,5.9566715E1,3.7498262E3,7.0094604E0,1.5791284E2,1.9694731E2,3.9992706E1,4.6065887E1,3.0804844E1,5.8246017E0,1.858723E1,1.425787E1],"tree_param":{"num_deleted":"0","num_feature":"115","num_nodes":"33","size_leaf_vector":"0"}},{"base_weights":[1.12561986E-1,-1.3368663E-1,5.148682E-1,-2.8990653E-1,3.448677E-1,5.256216E-1,-5.0604564E-1,-4.383489E-1,2.576151E-1,1.6345528E-1,5.749947E-1,5.5029476E-1,3.8291648E-1,-4.8353928E-1,1.7306298E-1,4.094713E-1,-5.2946943E-1,2.108874E-1,-5.143526E-1,6.0848296E-1,-5.153035E-1,5.578599E-1,3.382856E-1,4.1184506E-1,-7.3397434E-1,-5.2078384E-1,1.5582174E-2,-3.1843852E-2,5.447199E-1,6.367238E-1,2.2483234E-1,1.5713328E-1,7.2783643E-1,5.591722E-1,-3.3788207E-1,-2.8481275E-1,6.1687505E-1,3.158596E-1,6.4214814E-1,-5.315299E-1,6.483572E-1,-5.255022E-1,4.4897395E-1,-1.5986887E-1,9.271563E-1,7.2510755E-1,-4.5884663E-1,6.6672987E-1,1.0852772E-2,-5.123626E-1,2.7764004E-1,2.503203E-1,-2.6718995E-1,5.351492E-1,6.061276E-1,6.660979E-1,-5.673944E-1,2.2802576E-1,6.5331095E-1],"categories":[],"categories_nodes":[],"categories_segments":[],"categories_sizes":[],"default_left":[1,1,1,1,1,1,0,1,1,1,1,1,1,1,1,1,0,1,0,0,0,1,1,1,0,1,1,1,1,1,1,1,0,1,0,1,0,1,0,0,0,0,0,0,0,0,0,0,0,0,0,0,0,0,0,0,0,0,0],"id":21,"left_children":[1,3,5,7,9,11,-1,13,15,17,19,21,23,25,27,29,-1,31,-1,-1,-1,33,35,37,-1,39,41,43,45,47,49,51,-1,53,-1,55,-1,57,-1,-1,-1,-1,-1,-1,-1,-1,-1,-1,-1,-1,-1,-1,-1,-1,-1,-1,-1,-1,-1],"loss_changes":[4.5876007E2,2.1487685E2,1.9567932E1,1.7618884E2,2.9442024E1,5.9171143E0,0E0,4.718466E1,5.5520912E1,1.2872387E1,1.1686104E1,2.1874695E0,8.697552E0,2.9521759E1,9.008381E0,1.6155426E1,0E0,1.0216061E1,0E0,0E0,0E0,1.8686218E0,9.477375E0,5.4101524E0,0E0,1.8906555E1,2.631601E1,9.607929E0,7.9385023E0,3.2525482E0,8.545451E0,1.3432532E1,0E0,1.285553E0,0E0,5.010464E0,0E0,5.2213745E0,0E0,0E0,0E0,0E0,0E0,0E0,0E0,0E0,0E0,0E0,0E0,0E0,0E0,0E0,0E0,0E0,0E0,0E0,0E0,0E0,0E0],"parents":[2147483647,0,0,1,1,2,2,3,3,4,4,5,5,7,7,8,8,9,9,10,10,11,11,12,12,13,13,14,14,15,15,17,17,21,21,22,22,23,23,25,25,26,26,27,27,28,28,29,29,30,30,31,31,33,33,35,35,37,37],"right_children":[2,4,6,8,10,12,-1,14,16,18,20,22,24,26,28,30,-1,32,-1,-1,-1,34,36,38,-1,40,42,44,46,48,50,52,-1,54,-1,56,-1,58,-1,-1,-1,-1,-1,-1,-1,-1,-1,-1,-1,-1,-1,-1,-1,-1,-1,-1,-1,-1,-1],"split_conditions":[6.047047E-1,6.2973374E-1,5.390351E0,4.847291E-1,1.6653273E0,6.629245E-1,-1.518137E-1,6.2602156E-1,1.0848479E0,1.0848479E0,3.3663967E0,1.1765964E0,3.1921427E0,6.658902E-1,9.762701E-1,1.0538784E-1,-1.5884084E-1,2.1820655E0,-1.5430579E-1,1.8254489E-1,-1.5459105E-1,3.7154057E0,2.9469528E0,9.972777E-1,-2.2019231E-1,1.5042711E0,4.2667037E-1,1.9198021E0,1.1588979E0,2.9469528E0,5.0299823E-1,9.762701E-1,2.1835093E-1,3.9970613E-1,-1.0136463E-1,1.1588979E0,1.8506253E-1,1.6733025E0,1.9264445E-1,-1.5945898E-1,1.9450717E-1,-1.5765066E-1,1.3469219E-1,-4.796066E-2,2.7814692E-1,2.1753228E-1,-1.3765399E-1,2.0001897E-1,3.2558318E-3,-1.5370879E-1,8.3292015E-2,7.5096086E-2,-8.015699E-2,1.6054477E-1,1.8183829E-1,1.9982937E-1,-1.7021832E-1,6.840773E-2,1.9599329E-1],"split_indices":[44,83,74,109,98,22,0,42,112,112,93,80,85,67,43,82,0,17,0,0,0,102,11,21,0,49,1,39,6,11,70,43,0,87,0,6,0,16,0,0,0,0,0,0,0,0,0,0,0,0,0,0,0,0,0,0,0,0,0],"split_type":[0,0,0,0,0,0,0,0,0,0,0,0,0,0,0,0,0,0,0,0,0,0,0,0,0,0,0,0,0,0,0,0,0,0,0,0,0,0,0,0,0,0,0,0,0,0,0,0,0,0,0,0,0,0,0,0,0,0,0],"sum_hessian":[4.6290947E3,2.8718965E3,1.7571985E3,2.1654111E3,7.0648535E2,1.7393628E3,1.7835651E1,1.7037068E3,4.6170428E2,3.960129E2,3.1047244E2,1.4805283E3,2.5883444E2,1.5866445E3,1.1706224E2,3.874344E2,7.426991E1,3.7075668E2,2.525621E1,3.0164926E2,8.823184E0,1.4279437E3,5.258462E1,2.5291496E2,5.91949E0,1.4764296E3,1.10214935E2,7.604849E1,4.101375E1,1.7257796E2,2.1485641E2,3.3701654E2,3.3740166E1,1.42623E3,1.7137426E0,1.6239874E1,3.634475E1,1.8018793E2,7.272704E1,1.4635231E3,1.29064865E1,4.8922832E1,6.12921E1,6.7826996E1,8.2215E0,3.5000076E1,6.013674E0,1.646203E2,7.9576526E0,1.3780356E1,2.0107605E2,2.766669E2,6.0349632E1,9.517165E2,4.745135E2,3.4094853E0,1.2830389E1,1.443035E2,3.588443E1],"tree_param":{"num_deleted":"0","num_feature":"115","num_nodes":"59","size_leaf_vector":"0"}},{"base_weights":[-3.8594186E-1,-5.1860803E-1,-1.4686802E-1,-5.3512466E-1,-3.6959657E-1,-4.331449E-2,-5.327676E-1,-1.7067936E-1,-4.9431577E-1,-3.447568E-1,1.6445869E-1,-5.7229596E-1,1.6634654E-2,-5.327835E-1,-1.298479E-1,-1.3725351E-1,-4.592419E-1,4.0323813E-2,4.8344028E-1,4.4096297E-1,-3.5563815E-1,-4.8032975E-1,4.963469E-1,-2.889615E-1,1.6149613E-1,-1.7813446E-1,-5.336989E-1,1.0559894E-1,-5.282686E-1,5.633817E-1,3.2131545E-2,8.0155945E-1,-4.7331125E-1,-5.165608E-1,-1.5389894E-1,-5.029485E-1,-2.3421265E-1,-2.6503423E-1,5.4948187E-1,-5.218912E-1,5.6433094E-1,2.094642E-1,-2.4300781E-1,6.045792E-1,3.5037428E-1,6.1494714E-1,-5.0705487E-1],"categories":[],"categories_nodes":[],"categories_segments":[],"categories_sizes":[],"default_left":[1,1,1,0,1,1,0,1,1,1,1,0,1,0,1,1,1,1,1,1,1,0,0,1,1,1,0,1,0,1,1,0,0,0,0,0,0,0,0,0,0,0,0,0,0,0,0],"id":22,"left_children":[1,3,5,-1,7,9,-1,11,13,15,17,-1,19,-1,21,23,25,27,29,31,33,-1,-1,35,37,39,-1,41,-1,43,45,-1,-1,-1,-1,-1,-1,-1,-1,-1,-1,-1,-1,-1,-1,-1,-1],"loss_changes":[9.879462E1,4.7352905E0,4.4489212E1,0E0,4.9576187E0,5.5129307E1,0E0,6.016303E0,1.6747475E0,8.467857E0,2.0618542E1,0E0,8.911762E0,0E0,3.1348143E0,5.898196E0,4.7397766E0,1.4021609E1,5.2464333E0,9.065595E0,8.968985E-1,0E0,0E0,8.8956165E-1,7.447501E0,1.302342E1,0E0,1.230263E1,0E0,8.7545395E-1,7.5451903E0,0E0,0E0,0E0,0E0,0E0,0E0,0E0,0E0,0E0,0E0,0E0,0E0,0E0,0E0,0E0,0E0],"parents":[2147483647,0,0,1,1,2,2,4,4,5,5,7,7,8,8,9,9,10,10,12,12,14,14,15,15,16,16,17,17,18,18,19,19,20,20,23,23,24,24,25,25,27,27,29,29,30,30],"right_children":[2,4,6,-1,8,10,-1,12,14,16,18,-1,20,-1,22,24,26,28,30,32,34,-1,-1,36,38,40,-1,42,-1,44,46,-1,-1,-1,-1,-1,-1,-1,-1,-1,-1,-1,-1,-1,-1,-1,-1],"split_conditions":[5.0299823E-1,9.762701E-1,9.0977633E-1,-1.605374E-1,9.972777E-1,6.629245E-1,-1.5983029E-1,4.847291E-1,3.7154057E0,6.047047E-1,1.1588979E0,-1.716888E-1,6.047047E-1,-1.5983506E-1,4.2667037E-1,6.1135554E-1,6.658902E-1,9.972777E-1,6.047047E-1,1.0657148E0,3.9970613E-1,-1.4409894E-1,1.4890407E-1,5.996833E-1,9.762701E-1,9.762701E-1,-1.6010968E-1,4.847291E-1,-1.5848058E-1,9.762701E-1,3.9970613E-1,2.4046785E-1,-1.4199337E-1,-1.5496825E-1,-4.6169683E-2,-1.5088457E-1,-7.0263796E-2,-7.951027E-2,1.6484457E-1,-1.5656736E-1,1.6929929E-1,6.283926E-2,-7.2902344E-2,1.8137378E-1,1.0511229E-1,1.8448415E-1,-1.5211646E-1],"split_indices":[70,43,72,0,21,22,0,109,102,44,6,0,44,0,1,40,67,21,44,76,87,0,0,30,43,43,0,109,0,43,87,0,0,0,0,0,0,0,0,0,0,0,0,0,0,0,0],"split_type":[0,0,0,0,0,0,0,0,0,0,0,0,0,0,0,0,0,0,0,0,0,0,0,0,0,0,0,0,0,0,0,0,0,0,0,0,0,0,0,0,0,0,0,0,0,0,0],"sum_hessian":[3.1162786E3,2.0033926E3,1.112886E3,1.8011587E3,2.0223387E2,8.783098E2,2.3457623E2,7.884726E1,1.23386604E2,3.5810425E2,5.2020557E2,2.4424294E1,5.442297E1,1.1118934E2,1.2197271E1,1.2810812E2,2.2999612E2,3.7528577E2,1.449198E2,2.5347067E1,2.9075903E1,7.969611E0,4.2276607E0,8.498478E1,4.3123344E1,4.887277E1,1.8112335E2,3.3736957E2,3.7916176E1,1.2290161E2,2.2018185E1,1.8266075E1,7.0809913E0,1.530607E1,1.3769832E1,1.5645921E1,6.933886E1,2.0692278E1,2.2431065E1,3.360907E1,1.52637005E1,2.6023367E2,7.713591E1,1.0144328E2,2.145833E1,1.051348E1,1.1504704E1],"tree_param":{"num_deleted":"0","num_feature":"115","num_nodes":"47","size_leaf_vector":"0"}},{"base_weights":[-4.3035E-1,-4.618652E-1,2.9370257E-1,-4.6809042E-1,1.2991726E-1,-1.1631619E-1,5.1443774E-1,-5.047793E-1,-3.8751668E-1,-5.06055E-1,5.228827E-1,-5.244395E-1,6.441756E-1,6.0080695E-1,-4.6151844E-1,-5.208624E-1,-2.8550225E-1,-3.3550075E-1,-5.3245085E-1,-3.7600395E-1,6.638088E-1,6.5410674E-1,-4.2007297E-1,-5.2564037E-1,-3.0698922E-1,-4.4869852E-1,7.085321E-2,-2.3399433E-1,-4.8947617E-1,8.4984773E-1,6.1284584E-1,-5.282758E-1,-1.5643199E-1,-5.2761406E-1,1.0179561E0,-4.9674663E-1,-2.5698181E-2,-5.215282E-1,5.317149E-1,-1.1337015E-1,-3.9905128E-1,-4.1614246E-1,-5.3730613E-1],"categories":[],"categories_nodes":[],"categories_segments":[],"categories_sizes":[],"default_left":[1,1,1,1,1,1,1,1,1,0,1,0,0,1,0,1,1,1,0,0,0,1,0,1,1,1,1,1,1,0,0,0,0,0,0,0,0,0,0,0,0,0,0],"id":23,"left_children":[1,3,5,7,9,11,13,15,17,-1,19,-1,-1,21,-1,23,25,27,-1,-1,-1,29,-1,31,33,35,37,39,41,-1,-1,-1,-1,-1,-1,-1,-1,-1,-1,-1,-1,-1,-1],"loss_changes":[6.83822E1,1.0620728E1,1.1405646E1,8.190552E0,7.9175982E0,1.4207228E1,7.161825E0,6.7139893E0,6.545227E0,0E0,2.7095385E0,0E0,0E0,4.381216E0,0E0,1.690033E0,7.89377E0,1.0185905E1,0E0,0E0,0E0,6.160736E-2,0E0,1.6403809E0,1.2812848E1,1.874567E0,1.2105968E1,7.900976E0,6.916237E-1,0E0,0E0,0E0,0E0,0E0,0E0,0E0,0E0,0E0,0E0,0E0,0E0,0E0,0E0],"parents":[2147483647,0,0,1,1,2,2,3,3,4,4,5,5,6,6,7,7,8,8,10,10,13,13,15,15,16,16,17,17,21,21,23,23,24,24,25,25,26,26,27,27,28,28],"right_children":[2,4,6,8,10,12,14,16,18,-1,20,-1,-1,22,-1,24,26,28,-1,-1,-1,30,-1,32,34,36,38,40,42,-1,-1,-1,-1,-1,-1,-1,-1,-1,-1,-1,-1,-1,-1],"split_conditions":[3.1106684E0,6.549889E0,6.2602156E-1,5.0299823E-1,1.0657148E0,2.380928E0,1.6733025E0,1.5042711E0,9.0977633E-1,-1.518165E-1,6.2973374E-1,-1.5733185E-1,1.9325268E-1,1.2555322E1,-1.3845554E-1,3.3663967E0,1.0657148E0,6.2602156E-1,-1.5973526E-1,-1.1280119E-1,1.9914265E-1,3.9970613E-1,-1.2602189E-1,3.6749296E0,2.0292308E0,1.9198021E0,6.2602156E-1,6.2973374E-1,4.847291E-1,2.5495434E-1,1.8385376E-1,-1.5848275E-1,-4.6929598E-2,-1.5828422E-1,3.0538684E-1,-1.49024E-1,-7.7094547E-3,-1.5645847E-1,1.5951449E-1,-3.4011047E-2,-1.19715385E-1,-1.2484274E-1,-1.6119185E-1],"split_indices":[75,37,42,70,76,5,16,49,72,0,83,0,0,41,0,93,76,42,0,0,0,87,0,57,7,39,42,83,109,0,0,0,0,0,0,0,0,0,0,0,0,0,0],"split_type":[0,0,0,0,0,0,0,0,0,0,0,0,0,0,0,0,0,0,0,0,0,0,0,0,0,0,0,0,0,0,0,0,0,0,0,0,0,0,0,0,0,0,0],"sum_hessian":[2.9898247E3,2.8654644E3,1.2436036E2,2.835842E3,2.9622364E1,4.3686012E1,8.067435E1,1.9449521E3,8.908898E2,1.1203279E1,1.8419086E1,2.8631245E1,1.5054767E1,7.44685E1,6.2058506E0,1.8107642E3,1.34188E2,6.5803876E2,2.3285103E2,2.2702668E0,1.6148819E1,7.111488E1,3.3536115E0,1.7697694E3,4.0994846E1,9.186051E1,4.2327503E1,3.981096E2,2.5992917E2,8.969034E0,6.214585E1,1.7567986E3,1.2970779E1,3.5658855E1,5.335992E0,8.2333954E1,9.526556E0,1.8463411E1,2.3864092E1,2.3098894E2,1.6712065E2,1.0643764E2,1.5349155E2],"tree_param":{"num_deleted":"0","num_feature":"115","num_nodes":"43","size_leaf_vector":"0"}},{"base_weights":[3.3486176E-1,4.533144E-1,-5.269438E-1,5.0844437E-1,-2.3355065E-1,5.370861E-1,-1.2837334E-1,-4.64164E-1,5.7672507E-1,5.713198E-1,2.2283138E-1,-2.9830986E-1,5.68617E-1,-3.329719E-1,-5.284953E-1,5.7716435E-1,-5.1528096E-1,-1.0734294E-1,5.885428E-1,4.15103E-1,-5.2748424E-1,-4.7852085E-3,-5.2285963E-1,5.814775E-1,-5.3588754E-1,6.008261E-1,-7.704304E-1,5.782477E-1,-4.4199288E-1,-5.0475055E-1,5.8807606E-1],"categories":[],"categories_nodes":[],"categories_segments":[],"categories_sizes":[],"default_left":[1,1,0,1,1,1,1,1,0,1,1,1,0,1,0,1,0,1,0,1,0,1,0,0,0,0,0,0,0,0,0],"id":24,"left_children":[1,3,-1,5,7,9,11,13,-1,15,17,19,-1,21,-1,23,-1,25,-1,27,-1,29,-1,-1,-1,-1,-1,-1,-1,-1,-1],"loss_changes":[4.4606387E2,1.4553027E2,0E0,6.491211E1,5.3710037E1,3.6474487E1,1.8388664E1,1.7077065E0,0E0,1.9777466E1,4.061771E1,2.0545366E1,0E0,4.742278E0,0E0,1.4960999E1,0E0,8.374312E1,0E0,4.560524E0,0E0,8.867702E0,0E0,0E0,0E0,0E0,0E0,0E0,0E0,0E0,0E0],"parents":[2147483647,0,0,1,1,3,3,4,4,5,5,6,6,7,7,9,9,10,10,11,11,13,13,15,15,17,17,19,19,21,21],"right_children":[2,4,-1,6,8,10,12,14,-1,16,18,20,-1,22,-1,24,-1,26,-1,28,-1,30,-1,-1,-1,-1,-1,-1,-1,-1,-1],"split_conditions":[6.047047E-1,6.2973374E-1,-1.5808314E-1,5.996833E-1,1.0848479E0,6.658902E-1,2.530366E0,3.9970613E-1,1.7301753E-1,1.5042711E0,1.0848479E0,4.847291E-1,1.705851E-1,5.0299823E-1,-1.585486E-1,2.0116634E0,-1.5458429E-1,4.2667037E-1,1.7656285E-1,1.6733025E0,-1.5824528E-1,4.2667037E-1,-1.568579E-1,1.7444326E-1,-1.6076627E-1,1.8024783E-1,-2.3112912E-1,1.7347433E-1,-1.3259786E-1,-1.5142517E-1,1.7642282E-1],"split_indices":[44,83,0,30,112,67,35,87,0,49,112,109,0,70,0,56,0,1,0,16,0,1,0,0,0,0,0,0,0,0,0],"split_type":[0,0,0,0,0,0,0,0,0,0,0,0,0,0,0,0,0,0,0,0,0,0,0,0,0,0,0,0,0,0,0],"sum_hessian":[4.366273E3,3.839077E3,5.271959E2,3.5540754E3,2.8500146E2,3.4012559E3,1.5281972E2,2.2219072E2,6.2810757E1,3.0663962E3,3.3485947E2,1.233236E2,2.949611E1,7.513743E1,1.470533E2,3.0504575E3,1.5938697E1,1.7635123E2,1.5850826E2,2.9786825E1,9.353677E1,2.7915579E1,4.7221844E1,3.0391582E3,1.1299471E1,8.532214E1,9.102908E1,2.5296986E1,4.489838E0,1.5224899E1,1.269068E1],"tree_param":{"num_deleted":"0","num_feature":"115","num_nodes":"31","size_leaf_vector":"0"}},{"base_weights":[1.0454366E-1,-1.1699153E-1,4.6256357E-1,-2.6739347E-1,3.0395684E-1,4.719221E-1,-4.8989588E-1,-4.1584826E-1,2.2636646E-1,1.4652462E-1,5.3653324E-1,4.9924737E-1,3.262744E-1,-4.88795E-1,5.4912865E-3,3.5018653E-1,-5.1798517E-1,1.834588E-1,-5.0003046E-1,5.682343E-1,-4.8871225E-1,4.6553972E-1,5.6317306E-1,3.536567E-1,-6.934207E-1,-5.031668E-1,5.9034514E-1,2.6653463E-1,-5.2084357E-1,5.604301E-1,1.1436256E-1,3.6541343E-1,5.202024E-2,4.8050725E-1,-2.976637E-1,5.6690663E-1,-3.0970117E-1,2.6288587E-1,5.979994E-1,-5.16757E-1,4.0214518E-1,-5.0279444E-1,4.1345266E-1,4.7115996E-1,7.86303E-1,1.754195E-1,-7.399275E-1,4.0792578E-1,-9.6686107E-1,-7.695627E-2,3.7492517E-1,4.9442333E-1,8.818731E-2,5.735173E-1,-5.5340195E-1,5.8978057E-1,5.3171897E-1,1.815801E-1,6.0826904E-1],"categories":[],"categories_nodes":[],"categories_segments":[],"categories_sizes":[],"default_left":[1,1,1,1,1,1,0,1,1,1,1,1,1,1,1,1,0,1,0,0,0,1,1,1,0,1,0,1,0,1,1,1,1,1,1,1,0,1,0,0,0,0,0,0,0,0,0,0,0,0,0,0,0,0,0,0,0,0,0],"id":25,"left_children":[1,3,5,7,9,11,-1,13,15,17,19,21,23,25,27,29,-1,31,-1,-1,-1,33,35,37,-1,39,-1,41,-1,43,45,47,49,51,53,55,-1,57,-1,-1,-1,-1,-1,-1,-1,-1,-1,-1,-1,-1,-1,-1,-1,-1,-1,-1,-1,-1,-1],"loss_changes":[3.0341437E2,1.4972212E2,1.3265015E1,1.2777827E2,2.2719799E1,5.6019897E0,0E0,4.1175903E1,3.735271E1,8.991466E0,8.434441E0,2.361908E0,6.715067E0,1.8007233E1,2.7437765E1,1.7109879E1,0E0,8.429947E0,0E0,0E0,0E0,9.317368E0,1.5302429E0,4.862318E0,0E0,1.4079254E1,0E0,1.5294594E1,0E0,3.3168259E0,8.711069E0,8.776888E0,8.619736E0,4.25885E0,3.8965805E0,1.9836426E-2,0E0,4.5735607E0,0E0,0E0,0E0,0E0,0E0,0E0,0E0,0E0,0E0,0E0,0E0,0E0,0E0,0E0,0E0,0E0,0E0,0E0,0E0,0E0,0E0],"parents":[2147483647,0,0,1,1,2,2,3,3,4,4,5,5,7,7,8,8,9,9,10,10,11,11,12,12,13,13,14,14,15,15,17,17,21,21,22,22,23,23,25,25,27,27,29,29,30,30,31,31,32,32,33,33,34,34,35,35,37,37],"right_children":[2,4,6,8,10,12,-1,14,16,18,20,22,24,26,28,30,-1,32,-1,-1,-1,34,36,38,-1,40,-1,42,-1,44,46,48,50,52,54,56,-1,58,-1,-1,-1,-1,-1,-1,-1,-1,-1,-1,-1,-1,-1,-1,-1,-1,-1,-1,-1,-1,-1],"split_conditions":[6.047047E-1,6.2973374E-1,5.390351E0,4.847291E-1,1.6653273E0,6.629245E-1,-1.4696877E-1,6.1135554E-1,1.0848479E0,1.0848479E0,3.3663967E0,3.9970613E-1,3.1921427E0,2.0116634E0,9.0977633E-1,1.198877E0,-1.5539555E-1,6.2602156E-1,-1.5000914E-1,1.704703E-1,-1.4661369E-1,1.1765964E0,3.7154057E0,9.972777E-1,-2.0802622E-1,1.0657148E0,1.7710355E-1,4.2667037E-1,-1.5625307E-1,5.0299823E-1,3.9970613E-1,1.1765964E0,3.050579E-1,1.4745897E0,1.1588979E0,6.2973374E-1,-9.291036E-2,1.6733025E0,1.7939982E-1,-1.550271E-1,1.20643556E-1,-1.5083835E-1,1.240358E-1,1.4134799E-1,2.3589091E-1,5.262585E-2,-2.2197825E-1,1.2237774E-1,-2.9005834E-1,-2.3086883E-2,1.12477556E-1,1.4832701E-1,2.6456194E-2,1.720552E-1,-1.6602059E-1,1.7693418E-1,1.595157E-1,5.447403E-2,1.8248072E-1],"split_indices":[44,83,74,109,98,22,0,40,112,112,93,87,85,56,72,111,0,42,0,0,0,80,102,21,0,76,0,1,0,70,87,80,88,59,6,83,0,16,0,0,0,0,0,0,0,0,0,0,0,0,0,0,0,0,0,0,0,0,0],"split_type":[0,0,0,0,0,0,0,0,0,0,0,0,0,0,0,0,0,0,0,0,0,0,0,0,0,0,0,0,0,0,0,0,0,0,0,0,0,0,0,0,0,0,0,0,0,0,0,0,0,0,0,0,0,0,0,0,0,0,0],"sum_hessian":[3.8238003E3,2.362567E3,1.4612334E3,1.7409148E3,6.2165204E2,1.4475151E3,1.3718272E1,1.3386051E3,4.0230975E2,3.716859E2,2.4996614E2,1.216801E3,2.3071411E2,1.1409174E3,1.9768771E2,3.4538568E2,5.692406E1,3.522784E2,1.9407495E1,2.4290128E2,7.064864E0,8.0212683E2,4.1467426E2,2.2531676E2,5.3973565E0,1.1264492E3,1.446812E1,1.324773E2,6.521042E1,1.8186845E2,1.6351723E2,1.4700063E2,2.0527779E2,7.8706177E2,1.5065018E1,4.1325714E2,1.41711E0,1.6579973E2,5.951703E1,1.1102123E3,1.6236889E1,2.0854008E1,1.1162329E2,1.3256262E2,4.9305843E1,1.533517E2,1.0165533E1,1.431273E2,3.873325E0,1.4723145E2,5.804634E1,7.5984875E2,2.7213043E1,3.1368017E0,1.1928216E1,2.4089833E2,1.7235881E2,1.3544151E2,3.0358212E1],"tree_param":{"num_deleted":"0","num_feature":"115","num_nodes":"59","size_leaf_vector":"0"}},{"base_weights":[-3.5694158E-1,-5.0693905E-1,-1.16632655E-1,-5.260568E-1,-3.445632E-1,-2.377191E-2,-5.2293664E-1,-1.4476393E-1,-4.8359743E-1,-3.080341E-1,1.5104796E-1,-5.649065E-1,3.3635695E-2,-5.225038E-1,-1.2579425E-1,-1.0822553E-1,-4.334852E-1,4.1864257E-2,4.4836348E-1,3.6432618E-1,-3.0168474E-1,-4.6101275E-1,4.548657E-1,-2.5126895E-1,1.6284281E-1,-1.19360074E-1,-5.2425337E-1,1.8524365E-3,7.894386E-1,4.7905514E-1,-4.271381E-1,6.124637E-1,-5.096522E-1,-4.977002E-1,-8.213071E-2,-4.9031404E-1,-1.9582798E-1,3.3145052E-1,-5.789442E-1,-5.0902265E-1,5.390866E-1,9.097641E-2,-3.804551E-1,-4.364548E-1,9.752079E-1,5.034461E-1,-3.9953667E-1],"categories":[],"categories_nodes":[],"categories_segments":[],"categories_sizes":[],"default_left":[1,1,1,0,1,1,0,1,1,1,1,0,1,0,1,1,1,1,1,1,1,0,0,1,1,1,0,1,1,1,0,0,0,0,0,0,0,0,0,0,0,0,0,0,0,0,0],"id":26,"left_children":[1,3,5,-1,7,9,-1,11,13,15,17,-1,19,-1,21,23,25,27,29,31,33,-1,-1,35,37,39,-1,41,43,45,-1,-1,-1,-1,-1,-1,-1,-1,-1,-1,-1,-1,-1,-1,-1,-1,-1],"loss_changes":[9.068692E1,4.629547E0,3.654015E1,0E0,4.5451813E0,3.9286488E1,0E0,5.2357326E0,1.2921085E0,7.498493E0,1.5874687E1,0E0,5.631974E0,0E0,2.3280735E0,4.594382E0,5.2004128E0,1.0742864E1,3.735466E0,5.847781E0,1.0467885E0,0E0,0E0,9.2794275E-1,5.3412166E0,1.1223526E1,0E0,1.1685932E1,4.580888E0,2.9317703E0,0E0,0E0,0E0,0E0,0E0,0E0,0E0,0E0,0E0,0E0,0E0,0E0,0E0,0E0,0E0,0E0,0E0],"parents":[2147483647,0,0,1,1,2,2,4,4,5,5,7,7,8,8,9,9,10,10,12,12,14,14,15,15,16,16,17,17,18,18,19,19,20,20,23,23,24,24,25,25,27,27,28,28,29,29],"right_children":[2,4,6,-1,8,10,-1,12,14,16,18,-1,20,-1,22,24,26,28,30,32,34,-1,-1,36,38,40,-1,42,44,46,-1,-1,-1,-1,-1,-1,-1,-1,-1,-1,-1,-1,-1,-1,-1,-1,-1],"split_conditions":[5.0299823E-1,9.762701E-1,9.0977633E-1,-1.5781705E-1,9.972777E-1,6.629245E-1,-1.56881E-1,4.847291E-1,3.7154057E0,6.047047E-1,1.1588979E0,-1.6947195E-1,6.047047E-1,-1.5675114E-1,4.2667037E-1,6.1135554E-1,6.658902E-1,3.1921427E0,1.9198021E0,1.6733025E0,3.9970613E-1,-1.3830383E-1,1.3645971E-1,5.996833E-1,9.972777E-1,9.762701E-1,-1.5727602E-1,3.050579E-1,6.1135554E-1,1.6483316E0,-1.2814143E-1,1.8373913E-1,-1.5289566E-1,-1.4931007E-1,-2.4639213E-2,-1.4709422E-1,-5.8748394E-2,9.943516E-2,-1.7368327E-1,-1.527068E-1,1.6172598E-1,2.7292924E-2,-1.1413654E-1,-1.3093644E-1,2.925624E-1,1.5103383E-1,-1.1986101E-1],"split_indices":[70,43,72,0,21,22,0,109,102,44,6,0,44,0,1,40,67,85,39,16,87,0,0,30,21,43,0,88,40,33,0,0,0,0,0,0,0,0,0,0,0,0,0,0,0,0,0],"split_type":[0,0,0,0,0,0,0,0,0,0,0,0,0,0,0,0,0,0,0,0,0,0,0,0,0,0,0,0,0,0,0,0,0,0,0,0,0,0,0,0,0,0,0,0,0,0,0],"sum_hessian":[2.5165261E3,1.5487244E3,9.678017E2,1.3835845E3,1.651399E2,7.886209E2,1.7918074E2,6.859978E1,9.654012E1,3.0001913E2,4.886018E2,1.9800888E1,4.8798885E1,8.665702E1,9.883108E0,1.1643438E2,1.8358475E2,3.5820013E2,1.3040167E2,2.452551E1,2.4273376E1,6.3964515E0,3.4866562E0,7.626317E1,4.0171215E1,4.167464E1,1.419101E2,3.40954E2,1.724613E1,1.2642261E2,3.9790595E0,1.933515E1,5.19036E0,1.2154817E1,1.2118559E1,1.288085E1,6.338232E1,3.3182114E1,6.9890995E0,2.6323547E1,1.5351093E1,2.7711475E2,6.383927E1,2.0919423E0,1.5154187E1,1.23423195E2,2.9994187E0],"tree_param":{"num_deleted":"0","num_feature":"115","num_nodes":"47","size_leaf_vector":"0"}},{"base_weights":[-4.0501732E-1,-4.3673125E-1,2.9214966E-1,-4.8459336E-1,-3.3914968E-1,-8.727206E-2,4.9667582E-1,-5.1220244E-1,-2.984608E-1,-2.8142017E-1,-5.2270013E-1,-5.1115793E-1,6.0754484E-1,5.7353157E-1,-4.3472624E-1,-5.158983E-1,-5.8457393E-2,-4.0602005E-1,2.2124192E-1,-1.8968408E-1,-4.2489105E-1,6.2372184E-1,-3.920249E-1,-5.19459E-1,-2.8977966E-1,8.110933E-1,-4.9209064E-1,-4.5231354E-1,7.996911E-1,-5.031041E-1,7.677711E-1,-7.64162E-2,-3.601624E-1,-4.6777788E-1,3.540212E-1,7.964845E-1,5.7854724E-1,-5.2165616E-1,-3.5885745E-1,-5.053572E-1,4.324405E-1,-4.894728E-1,2.883012E-1,-4.7827962E-1,1.288405E0,-5.243254E-1,3.4679373E-4,1.861317E-1,-5.3940326E-1,-3.8452956E-1,-5.2671707E-1,6.065801E-1,-3.8959754E-1],"categories":[],"categories_nodes":[],"categories_segments":[],"categories_sizes":[],"default_left":[1,1,1,1,1,1,1,1,1,1,0,0,0,1,0,1,1,1,1,1,1,1,0,1,1,0,0,1,0,0,1,1,1,1,1,0,0,0,0,0,0,0,0,0,0,0,0,0,0,0,0,0,0],"id":27,"left_children":[1,3,5,7,9,11,13,15,17,19,-1,-1,-1,21,-1,23,25,27,29,31,33,35,-1,37,39,-1,-1,41,-1,-1,43,45,47,49,51,-1,-1,-1,-1,-1,-1,-1,-1,-1,-1,-1,-1,-1,-1,-1,-1,-1,-1],"loss_changes":[5.2734924E1,1.0466736E1,8.123706E0,7.6832275E0,7.825409E0,1.1302279E1,5.1031036E0,2.194336E0,1.1233887E1,7.4811134E0,0E0,0E0,0E0,3.3008976E0,0E0,9.0875244E-1,4.865435E0,9.600958E0,1.4175665E1,6.7745113E0,7.6241264E0,1.0101318E-2,0E0,2.6940918E-1,3.7463129E0,0E0,0E0,4.5457115E0,0E0,0E0,1.3752474E1,7.320679E0,1.3843046E1,8.3792496E-1,2.5315487E0,0E0,0E0,0E0,0E0,0E0,0E0,0E0,0E0,0E0,0E0,0E0,0E0,0E0,0E0,0E0,0E0,0E0,0E0],"parents":[2147483647,0,0,1,1,2,2,3,3,4,4,5,5,6,6,7,7,8,8,9,9,13,13,15,15,16,16,17,17,18,18,19,19,20,20,21,21,23,23,24,24,27,27,30,30,31,31,32,32,33,33,34,34],"right_children":[2,4,6,8,10,12,14,16,18,20,-1,-1,-1,22,-1,24,26,28,30,32,34,36,-1,38,40,-1,-1,42,-1,-1,44,46,48,50,52,-1,-1,-1,-1,-1,-1,-1,-1,-1,-1,-1,-1,-1,-1,-1,-1,-1,-1],"split_conditions":[3.1106684E0,5.0299823E-1,6.2602156E-1,1.0657148E0,9.0977633E-1,2.380928E0,1.6733025E0,3.6749296E0,1.1588979E0,6.2602156E-1,-1.5681005E-1,-1.5334739E-1,1.8226346E-1,1.2555322E1,-1.3041788E-1,2.9469528E0,4.2667037E-1,3.3663967E0,6.2602156E-1,6.2973374E-1,6.549889E0,3.9970613E-1,-1.17607474E-1,2.380928E0,6.2973374E-1,2.4332799E-1,-1.476272E-1,6.549889E0,2.3990734E-1,-1.5093124E-1,5.996833E-1,6.658902E-1,6.658902E-1,4.847291E-1,1.6733025E0,2.3894535E-1,1.7356418E-1,-1.5649685E-1,-1.0765724E-1,-1.5160717E-1,1.2973215E-1,-1.4684185E-1,8.649036E-2,-1.4348389E-1,3.865215E-1,-1.5729761E-1,1.04038125E-4,5.5839512E-2,-1.6182098E-1,-1.15358874E-1,-1.5801513E-1,1.8197402E-1,-1.1687926E-1],"split_indices":[75,70,42,76,72,5,16,57,6,42,0,0,0,41,0,11,1,93,42,83,37,87,0,5,83,0,0,37,0,0,30,67,67,109,16,0,0,0,0,0,0,0,0,0,0,0,0,0,0,0,0,0,0],"split_type":[0,0,0,0,0,0,0,0,0,0,0,0,0,0,0,0,0,0,0,0,0,0,0,0,0,0,0,0,0,0,0,0,0,0,0,0,0,0,0,0,0,0,0,0,0,0,0,0,0,0,0,0,0],"sum_hessian":[2.3783591E3,2.2752332E3,1.0312609E2,1.523846E3,7.5138715E2,3.6320427E1,6.6805664E1,1.3254847E3,1.9836122E2,5.735346E2,1.7785254E2,2.2722483E1,1.3597942E1,6.2068256E1,4.737409E0,1.3146398E3,1.0844884E1,1.6452863E2,3.3832592E1,3.5125946E2,2.2227516E2,5.9337868E1,2.730392E0,1.2929814E3,2.165833E1,3.3189807E0,7.5259027E0,1.5904684E2,5.4817777E0,1.45835905E1,1.9249E1,2.1191129E2,1.3934818E2,2.11054E2,1.1221165E1,8.852333E0,5.0485535E1,1.2733136E3,1.9667862E1,1.691084E1,4.7474923E0,1.5177106E2,7.27579E0,5.6965656E0,1.3552436E1,3.0150986E1,1.817603E2,3.441598E1,1.049322E2,9.060443E1,1.2044956E2,8.51385E0,2.7073147E0],"tree_param":{"num_deleted":"0","num_feature":"115","num_nodes":"53","size_leaf_vector":"0"}},{"base_weights":[3.1430003E-1,4.274887E-1,-5.201611E-1,4.8111483E-1,-2.3216423E-1,5.097815E-1,-1.3493335E-1,-4.500056E-1,5.507314E-1,5.447023E-1,1.9790068E-1,-2.92976E-1,5.4005927E-1,-3.091435E-1,-5.20892E-1,5.5064374E-1,-5.0295764E-1,-1.1398924E-1,5.6174386E-1,3.8832206E-1,-5.198183E-1,2.2446735E-2,-5.1391214E-1,5.5491334E-1,-5.0946504E-1,5.71727E-1,-7.2701585E-1,5.537444E-1,-4.280163E-1,-4.8982316E-1,5.6534594E-1],"categories":[],"categories_nodes":[],"categories_segments":[],"categories_sizes":[],"default_left":[1,1,0,1,1,1,1,1,0,1,1,1,0,1,0,1,0,1,0,1,0,1,0,0,0,0,0,0,0,0,0],"id":28,"left_children":[1,3,-1,5,7,9,11,13,-1,15,17,19,-1,21,-1,23,-1,25,-1,27,-1,29,-1,-1,-1,-1,-1,-1,-1,-1,-1],"loss_changes":[3.254045E2,1.0737378E2,0E0,4.9596924E1,3.92419E1,2.908081E1,1.35453825E1,1.6305237E0,0E0,1.5276001E1,3.0866142E1,1.6016964E1,0E0,4.256877E0,0E0,1.1129761E1,0E0,6.220178E1,0E0,3.7661145E0,0E0,7.1819434E0,0E0,0E0,0E0,0E0,0E0,0E0,0E0,0E0,0E0],"parents":[2147483647,0,0,1,1,3,3,4,4,5,5,6,6,7,7,9,9,10,10,11,11,13,13,15,15,17,17,19,19,21,21],"right_children":[2,4,-1,6,8,10,12,14,-1,16,18,20,-1,22,-1,24,-1,26,-1,28,-1,30,-1,-1,-1,-1,-1,-1,-1,-1,-1],"split_conditions":[6.047047E-1,6.2973374E-1,-1.5604833E-1,5.996833E-1,1.0848479E0,6.658902E-1,2.530366E0,3.9970613E-1,1.6521943E-1,1.5042711E0,1.0848479E0,4.847291E-1,1.6201779E-1,5.0299823E-1,-1.5626761E-1,2.0116634E0,-1.508873E-1,4.2667037E-1,1.6852316E-1,1.6733025E0,-1.559455E-1,4.2667037E-1,-1.5417364E-1,1.6647401E-1,-1.5283951E-1,1.715181E-1,-2.1810476E-1,1.6612332E-1,-1.284049E-1,-1.4694695E-1,1.696038E-1],"split_indices":[44,83,0,30,112,67,35,87,0,49,112,109,0,70,0,56,0,1,0,16,0,1,0,0,0,0,0,0,0,0,0],"split_type":[0,0,0,0,0,0,0,0,0,0,0,0,0,0,0,0,0,0,0,0,0,0,0,0,0,0,0,0,0,0,0],"sum_hessian":[3.4418452E3,3.0311755E3,4.106696E2,2.8035344E3,2.2764116E2,2.6790427E3,1.2449173E2,1.7842067E2,4.922049E1,2.4086084E3,2.7043442E2,1.0133186E2,2.3159866E1,6.15241E1,1.1689657E2,2.3954973E3,1.3110934E1,1.4598303E2,1.2445138E2,2.5133642E1,7.619822E1,2.3828312E1,3.769579E1,2.3863628E3,9.134499E0,6.893804E1,7.7045E1,2.1166208E1,3.9674354E0,1.2310299E1,1.1518013E1],"tree_param":{"num_deleted":"0","num_feature":"115","num_nodes":"31","size_leaf_vector":"0"}},{"base_weights":[9.667331E-2,-1.0169994E-1,4.1782117E-1,-2.4438913E-1,2.6418373E-1,4.2604238E-1,-4.739792E-1,-3.921667E-1,1.9578381E-1,1.2600419E-1,5.059219E-1,4.5621163E-1,2.791597E-1,-4.757533E-1,2.1472836E-2,5.081388E-1,-4.9100604E-2,8.352566E-2,6.288847E-1,5.3645104E-1,-4.6318552E-1,4.177434E-1,5.315522E-1,1.859946E-1,5.694546E-1,-5.026143E-1,1.0310787E-1,2.3115687E-1,-5.110518E-1,4.3106645E-1,6.8955076E-1,8.155577E-2,-5.0834733E-1,1.5818466E-1,-2.5679168E-1,4.3343905E-1,-3.0689654E-1,5.35315E-1,-2.8289327E-1,2.4870897E-3,3.8805452E-1,-5.129467E-1,3.378857E-1,-2.1274403E-1,5.69049E-1,-4.893012E-1,3.3749118E-1,5.330954E-1,-4.9068415E-1,7.4132735E-1,-3.9912736E-1,1.3267769E-1,-6.670383E-1,6.635326E-2,5.6847876E-1,-4.727793E-1,4.5233256E-1,4.4811374E-1,6.493227E-2,5.0177836E-1,-5.372773E-1,5.63655E-1,4.9312645E-1,1.3038622E-1,-4.7735968E-1,5.060486E-1,-5.0869805E-1],"categories":[],"categories_nodes":[],"categories_segments":[],"categories_sizes":[],"default_left":[1,1,1,1,1,1,0,1,1,1,1,1,1,1,1,1,1,1,0,0,0,1,1,1,0,1,1,1,0,1,1,1,0,1,1,1,1,1,0,1,1,0,0,0,0,0,0,0,0,0,0,0,0,0,0,0,0,0,0,0,0,0,0,0,0,0,0],"id":29,"left_children":[1,3,5,7,9,11,-1,13,15,17,19,21,23,25,27,29,31,33,-1,-1,-1,35,37,39,-1,41,43,45,-1,47,49,51,-1,53,55,57,59,61,-1,63,65,-1,-1,-1,-1,-1,-1,-1,-1,-1,-1,-1,-1,-1,-1,-1,-1,-1,-1,-1,-1,-1,-1,-1,-1,-1,-1],"loss_changes":[2.0141765E2,1.0211912E2,9.0525055E0,9.158929E1,1.8272297E1,5.1755066E0,0E0,3.643753E1,2.7123398E1,7.437082E0,6.1455307E0,2.6506042E0,5.4785843E0,1.3680496E1,2.0001783E1,1.8807869E0,1.2011832E1,8.284275E0,0E0,0E0,0E0,7.64904E0,1.1669083E0,5.850319E0,0E0,7.449234E0,5.963506E0,1.0005725E1,0E0,1.0794249E1,2.8200493E0,6.0650854E0,0E0,1.0010973E1,9.212773E0,3.4709473E0,2.9887686E0,1.1681366E-1,0E0,5.1993737E0,8.203749E0,0E0,0E0,0E0,0E0,0E0,0E0,0E0,0E0,0E0,0E0,0E0,0E0,0E0,0E0,0E0,0E0,0E0,0E0,0E0,0E0,0E0,0E0,0E0,0E0,0E0,0E0],"parents":[2147483647,0,0,1,1,2,2,3,3,4,4,5,5,7,7,8,8,9,9,10,10,11,11,12,12,13,13,14,14,15,15,16,16,17,17,21,21,22,22,23,23,25,25,26,26,27,27,29,29,30,30,31,31,33,33,34,34,35,35,36,36,37,37,39,39,40,40],"right_children":[2,4,6,8,10,12,-1,14,16,18,20,22,24,26,28,30,32,34,-1,-1,-1,36,38,40,-1,42,44,46,-1,48,50,52,-1,54,56,58,60,62,-1,64,66,-1,-1,-1,-1,-1,-1,-1,-1,-1,-1,-1,-1,-1,-1,-1,-1,-1,-1,-1,-1,-1,-1,-1,-1,-1,-1],"split_conditions":[6.047047E-1,6.2973374E-1,5.390351E0,4.847291E-1,1.6653273E0,6.629245E-1,-1.4219376E-1,6.1135554E-1,1.198877E0,2.1820655E0,3.3663967E0,3.9970613E-1,9.972777E-1,6.2602156E-1,9.0977633E-1,5.0299823E-1,1.0848479E0,9.762701E-1,1.886654E-1,1.6093531E-1,-1.3895567E-1,1.1765964E0,3.7154057E0,5.996833E-1,1.7083639E-1,1.5042711E0,1.6733025E0,4.2667037E-1,-1.5331554E-1,1.0538784E-1,1.1588979E0,3.9970613E-1,-1.525042E-1,5.996833E-1,1.1588979E0,1.4745897E0,1.1588979E0,6.2973374E-1,-8.4867984E-2,6.2973374E-1,3.1106684E0,-1.5388402E-1,1.01365715E-1,-6.382321E-2,1.707147E-1,-1.4679037E-1,1.0124736E-1,1.5992863E-1,-1.4720525E-1,2.223982E-1,-1.1973821E-1,3.9803308E-2,-2.0011151E-1,1.9905979E-2,1.7054364E-1,-1.418338E-1,1.3569978E-1,1.3443413E-1,1.9479683E-2,1.5053351E-1,-1.611832E-1,1.6909651E-1,1.4793794E-1,3.911587E-2,-1.4320791E-1,1.518146E-1,-1.5260942E-1],"split_indices":[44,83,74,109,98,22,0,40,111,17,93,87,21,42,72,70,112,43,0,0,0,80,102,30,0,49,16,1,0,82,6,87,0,30,6,59,6,83,0,83,75,0,0,0,0,0,0,0,0,0,0,0,0,0,0,0,0,0,0,0,0,0,0,0,0,0,0],"split_type":[0,0,0,0,0,0,0,0,0,0,0,0,0,0,0,0,0,0,0,0,0,0,0,0,0,0,0,0,0,0,0,0,0,0,0,0,0,0,0,0,0,0,0,0,0,0,0,0,0,0,0,0,0,0,0,0,0,0,0,0,0,0,0,0,0,0,0],"sum_hessian":[3.1599512E3,1.953782E3,1.2061692E3,1.4058525E3,5.4792957E2,1.195669E3,1.0500197E1,1.0525822E3,3.532703E2,3.4961053E2,1.9831902E2,9.901825E2,2.054864E2,8.755121E2,1.7707013E2,1.5477573E2,1.9849455E2,3.234543E2,2.6156223E1,1.9269511E2,5.6238933E0,6.59826E2,3.3035654E2,1.568037E2,4.868271E1,8.3681305E2,3.8699043E1,1.27451454E2,4.9618675E1,1.10995705E2,4.3780025E1,1.5517068E2,4.3323875E1,2.6570007E2,5.775424E1,6.462305E2,1.359543E1,3.2917844E2,1.1781039E0,8.270484E1,7.409886E1,8.270358E2,9.777201E0,2.3388124E1,1.5310918E1,1.5928418E1,1.1152303E2,1.0031359E2,1.0682108E1,4.2096985E1,1.6830406E0,1.4602155E2,9.149131E0,2.1805669E2,4.7643387E1,4.4525723E1,1.3228515E1,6.212741E2,2.495644E1,2.7531996E0,1.0842231E1,1.8951323E2,1.3966522E2,6.587475E1,1.6830088E1,6.586772E1,8.231141E0],"tree_param":{"num_deleted":"0","num_feature":"115","num_nodes":"67","size_leaf_vector":"0"}},{"base_weights":[-3.2790568E-1,-4.959923E-1,-9.2816524E-2,-5.192476E-1,-3.127743E-1,-1.2005725E-2,-5.153329E-1,-1.0524653E-1,-4.747937E-1,-2.6661915E-1,1.2860428E-1,-5.539304E-1,6.914593E-2,-5.1439404E-1,-1.1960622E-1,-7.68456E-2,-4.0532786E-1,2.3913287E-2,3.9642426E-1,3.4237257E-1,-2.466731E-1,-4.4036844E-1,4.1898805E-1,-2.1323334E-1,1.6023116E-1,-5.626874E-2,-5.167807E-1,7.1172744E-2,-5.090709E-1,4.8306167E-1,-2.5416296E-2,5.7692087E-1,-4.4419786E-1,-4.7992313E-1,-1.6355438E-2,-1.6204312E-1,-5.010456E-1,-2.3064943E-1,4.951485E-1,-4.9698225E-1,5.202618E-1,3.1906303E-2,6.214004E-1,6.9892615E-1,3.863538E-1,3.8869816E-1,-4.937918E-1],"categories":[],"categories_nodes":[],"categories_segments":[],